digraph Tree {
node [shape=box, fontname="helvetica"] ;
edge [fontname="helvetica"] ;
0 [label="X[1] <= 0.355\ngini = 0.641\nsamples = 722\nvalue = [5, 39, 452, 476, 128, 19]"] ;
1 [label="X[7] <= 0.995\ngini = 0.637\nsamples = 122\nvalue = [0, 1, 27, 96, 67, 9]"] ;
0 -> 1 [labeldistance=2.5, labelangle=45, headlabel="True"] ;
2 [label="X[9] <= 0.795\ngini = 0.522\nsamples = 39\nvalue = [0, 0, 0, 31, 38, 2]"] ;
1 -> 2 ;
3 [label="X[2] <= 0.455\ngini = 0.527\nsamples = 32\nvalue = [0, 0, 0, 31, 25, 2]"] ;
2 -> 3 ;
4 [label="X[4] <= 0.045\ngini = 0.408\nsamples = 22\nvalue = [0, 0, 0, 25, 10, 0]"] ;
3 -> 4 ;
5 [label="gini = 0.0\nsamples = 2\nvalue = [0, 0, 0, 0, 3, 0]"] ;
4 -> 5 ;
6 [label="X[6] <= 35.5\ngini = 0.342\nsamples = 20\nvalue = [0, 0, 0, 25, 7, 0]"] ;
4 -> 6 ;
7 [label="X[2] <= 0.395\ngini = 0.484\nsamples = 10\nvalue = [0, 0, 0, 10, 7, 0]"] ;
6 -> 7 ;
8 [label="X[9] <= 0.535\ngini = 0.375\nsamples = 5\nvalue = [0, 0, 0, 2, 6, 0]"] ;
7 -> 8 ;
9 [label="gini = 0.0\nsamples = 1\nvalue = [0, 0, 0, 1, 0, 0]"] ;
8 -> 9 ;
10 [label="X[7] <= 0.995\ngini = 0.245\nsamples = 4\nvalue = [0, 0, 0, 1, 6, 0]"] ;
8 -> 10 ;
11 [label="gini = 0.0\nsamples = 2\nvalue = [0, 0, 0, 0, 4, 0]"] ;
10 -> 11 ;
12 [label="X[2] <= 0.36\ngini = 0.444\nsamples = 2\nvalue = [0, 0, 0, 1, 2, 0]"] ;
10 -> 12 ;
13 [label="gini = 0.0\nsamples = 1\nvalue = [0, 0, 0, 1, 0, 0]"] ;
12 -> 13 ;
14 [label="gini = 0.0\nsamples = 1\nvalue = [0, 0, 0, 0, 2, 0]"] ;
12 -> 14 ;
15 [label="X[10] <= 12.55\ngini = 0.198\nsamples = 5\nvalue = [0, 0, 0, 8, 1, 0]"] ;
7 -> 15 ;
16 [label="gini = 0.0\nsamples = 4\nvalue = [0, 0, 0, 8, 0, 0]"] ;
15 -> 16 ;
17 [label="gini = 0.0\nsamples = 1\nvalue = [0, 0, 0, 0, 1, 0]"] ;
15 -> 17 ;
18 [label="gini = 0.0\nsamples = 10\nvalue = [0, 0, 0, 15, 0, 0]"] ;
6 -> 18 ;
19 [label="X[4] <= 0.065\ngini = 0.499\nsamples = 10\nvalue = [0, 0, 0, 6, 15, 2]"] ;
3 -> 19 ;
20 [label="X[2] <= 0.66\ngini = 0.375\nsamples = 4\nvalue = [0, 0, 0, 6, 2, 0]"] ;
19 -> 20 ;
21 [label="gini = 0.0\nsamples = 3\nvalue = [0, 0, 0, 6, 0, 0]"] ;
20 -> 21 ;
22 [label="gini = 0.0\nsamples = 1\nvalue = [0, 0, 0, 0, 2, 0]"] ;
20 -> 22 ;
23 [label="X[2] <= 0.53\ngini = 0.231\nsamples = 6\nvalue = [0, 0, 0, 0, 13, 2]"] ;
19 -> 23 ;
24 [label="gini = 0.0\nsamples = 5\nvalue = [0, 0, 0, 0, 13, 0]"] ;
23 -> 24 ;
25 [label="gini = 0.0\nsamples = 1\nvalue = [0, 0, 0, 0, 0, 2]"] ;
23 -> 25 ;
26 [label="gini = 0.0\nsamples = 7\nvalue = [0, 0, 0, 0, 13, 0]"] ;
2 -> 26 ;
27 [label="X[0] <= 6.2\ngini = 0.649\nsamples = 83\nvalue = [0, 1, 27, 65, 29, 7]"] ;
1 -> 27 ;
28 [label="X[5] <= 9.0\ngini = 0.37\nsamples = 5\nvalue = [0, 1, 7, 1, 0, 0]"] ;
27 -> 28 ;
29 [label="gini = 0.0\nsamples = 1\nvalue = [0, 1, 0, 0, 0, 0]"] ;
28 -> 29 ;
30 [label="X[7] <= 0.997\ngini = 0.219\nsamples = 4\nvalue = [0, 0, 7, 1, 0, 0]"] ;
28 -> 30 ;
31 [label="gini = 0.0\nsamples = 3\nvalue = [0, 0, 7, 0, 0, 0]"] ;
30 -> 31 ;
32 [label="gini = 0.0\nsamples = 1\nvalue = [0, 0, 0, 1, 0, 0]"] ;
30 -> 32 ;
33 [label="X[6] <= 22.5\ngini = 0.626\nsamples = 78\nvalue = [0, 0, 20, 64, 29, 7]"] ;
27 -> 33 ;
34 [label="X[7] <= 0.998\ngini = 0.699\nsamples = 29\nvalue = [0, 0, 9, 14, 17, 4]"] ;
33 -> 34 ;
35 [label="X[8] <= 3.365\ngini = 0.598\nsamples = 17\nvalue = [0, 0, 0, 9, 14, 4]"] ;
34 -> 35 ;
36 [label="X[10] <= 11.55\ngini = 0.635\nsamples = 14\nvalue = [0, 0, 0, 9, 8, 4]"] ;
35 -> 36 ;
37 [label="X[1] <= 0.25\ngini = 0.549\nsamples = 13\nvalue = [0, 0, 0, 9, 8, 1]"] ;
36 -> 37 ;
38 [label="gini = 0.0\nsamples = 3\nvalue = [0, 0, 0, 4, 0, 0]"] ;
37 -> 38 ;
39 [label="X[3] <= 2.1\ngini = 0.541\nsamples = 10\nvalue = [0, 0, 0, 5, 8, 1]"] ;
37 -> 39 ;
40 [label="X[10] <= 10.3\ngini = 0.568\nsamples = 6\nvalue = [0, 0, 0, 5, 3, 1]"] ;
39 -> 40 ;
41 [label="X[7] <= 0.996\ngini = 0.375\nsamples = 2\nvalue = [0, 0, 0, 0, 3, 1]"] ;
40 -> 41 ;
42 [label="gini = 0.0\nsamples = 1\nvalue = [0, 0, 0, 0, 0, 1]"] ;
41 -> 42 ;
43 [label="gini = 0.0\nsamples = 1\nvalue = [0, 0, 0, 0, 3, 0]"] ;
41 -> 43 ;
44 [label="gini = 0.0\nsamples = 4\nvalue = [0, 0, 0, 5, 0, 0]"] ;
40 -> 44 ;
45 [label="gini = 0.0\nsamples = 4\nvalue = [0, 0, 0, 0, 5, 0]"] ;
39 -> 45 ;
46 [label="gini = 0.0\nsamples = 1\nvalue = [0, 0, 0, 0, 0, 3]"] ;
36 -> 46 ;
47 [label="gini = 0.0\nsamples = 3\nvalue = [0, 0, 0, 0, 6, 0]"] ;
35 -> 47 ;
48 [label="X[8] <= 3.18\ngini = 0.602\nsamples = 12\nvalue = [0, 0, 9, 5, 3, 0]"] ;
34 -> 48 ;
49 [label="gini = 0.0\nsamples = 4\nvalue = [0, 0, 0, 4, 0, 0]"] ;
48 -> 49 ;
50 [label="X[4] <= 0.071\ngini = 0.462\nsamples = 8\nvalue = [0, 0, 9, 1, 3, 0]"] ;
48 -> 50 ;
51 [label="X[7] <= 0.998\ngini = 0.5\nsamples = 2\nvalue = [0, 0, 0, 1, 1, 0]"] ;
50 -> 51 ;
52 [label="gini = 0.0\nsamples = 1\nvalue = [0, 0, 0, 0, 1, 0]"] ;
51 -> 52 ;
53 [label="gini = 0.0\nsamples = 1\nvalue = [0, 0, 0, 1, 0, 0]"] ;
51 -> 53 ;
54 [label="X[2] <= 0.615\ngini = 0.298\nsamples = 6\nvalue = [0, 0, 9, 0, 2, 0]"] ;
50 -> 54 ;
55 [label="gini = 0.0\nsamples = 4\nvalue = [0, 0, 9, 0, 0, 0]"] ;
54 -> 55 ;
56 [label="gini = 0.0\nsamples = 2\nvalue = [0, 0, 0, 0, 2, 0]"] ;
54 -> 56 ;
57 [label="X[6] <= 80.5\ngini = 0.52\nsamples = 49\nvalue = [0, 0, 11, 50, 12, 3]"] ;
33 -> 57 ;
58 [label="X[6] <= 30.5\ngini = 0.456\nsamples = 45\nvalue = [0, 0, 6, 50, 11, 3]"] ;
57 -> 58 ;
59 [label="X[9] <= 1.005\ngini = 0.174\nsamples = 18\nvalue = [0, 0, 1, 29, 2, 0]"] ;
58 -> 59 ;
60 [label="X[2] <= 0.64\ngini = 0.064\nsamples = 17\nvalue = [0, 0, 1, 29, 0, 0]"] ;
59 -> 60 ;
61 [label="gini = 0.0\nsamples = 16\nvalue = [0, 0, 0, 29, 0, 0]"] ;
60 -> 61 ;
62 [label="gini = 0.0\nsamples = 1\nvalue = [0, 0, 1, 0, 0, 0]"] ;
60 -> 62 ;
63 [label="gini = 0.0\nsamples = 1\nvalue = [0, 0, 0, 0, 2, 0]"] ;
59 -> 63 ;
64 [label="X[10] <= 10.5\ngini = 0.615\nsamples = 27\nvalue = [0, 0, 5, 21, 9, 3]"] ;
58 -> 64 ;
65 [label="X[2] <= 0.44\ngini = 0.308\nsamples = 14\nvalue = [0, 0, 4, 17, 0, 0]"] ;
64 -> 65 ;
66 [label="X[4] <= 0.081\ngini = 0.494\nsamples = 6\nvalue = [0, 0, 4, 5, 0, 0]"] ;
65 -> 66 ;
67 [label="X[0] <= 7.7\ngini = 0.278\nsamples = 4\nvalue = [0, 0, 1, 5, 0, 0]"] ;
66 -> 67 ;
68 [label="gini = 0.0\nsamples = 1\nvalue = [0, 0, 1, 0, 0, 0]"] ;
67 -> 68 ;
69 [label="gini = 0.0\nsamples = 3\nvalue = [0, 0, 0, 5, 0, 0]"] ;
67 -> 69 ;
70 [label="gini = 0.0\nsamples = 2\nvalue = [0, 0, 3, 0, 0, 0]"] ;
66 -> 70 ;
71 [label="gini = 0.0\nsamples = 8\nvalue = [0, 0, 0, 12, 0, 0]"] ;
65 -> 71 ;
72 [label="X[0] <= 8.05\ngini = 0.63\nsamples = 13\nvalue = [0, 0, 1, 4, 9, 3]"] ;
64 -> 72 ;
73 [label="X[6] <= 43.0\ngini = 0.56\nsamples = 3\nvalue = [0, 0, 1, 0, 1, 3]"] ;
72 -> 73 ;
74 [label="gini = 0.0\nsamples = 1\nvalue = [0, 0, 0, 0, 0, 3]"] ;
73 -> 74 ;
75 [label="X[6] <= 58.0\ngini = 0.5\nsamples = 2\nvalue = [0, 0, 1, 0, 1, 0]"] ;
73 -> 75 ;
76 [label="gini = 0.0\nsamples = 1\nvalue = [0, 0, 0, 0, 1, 0]"] ;
75 -> 76 ;
77 [label="gini = 0.0\nsamples = 1\nvalue = [0, 0, 1, 0, 0, 0]"] ;
75 -> 77 ;
78 [label="X[4] <= 0.108\ngini = 0.444\nsamples = 10\nvalue = [0, 0, 0, 4, 8, 0]"] ;
72 -> 78 ;
79 [label="X[5] <= 28.5\ngini = 0.397\nsamples = 9\nvalue = [0, 0, 0, 3, 8, 0]"] ;
78 -> 79 ;
80 [label="X[10] <= 11.15\ngini = 0.5\nsamples = 6\nvalue = [0, 0, 0, 3, 3, 0]"] ;
79 -> 80 ;
81 [label="gini = 0.0\nsamples = 3\nvalue = [0, 0, 0, 3, 0, 0]"] ;
80 -> 81 ;
82 [label="gini = 0.0\nsamples = 3\nvalue = [0, 0, 0, 0, 3, 0]"] ;
80 -> 82 ;
83 [label="gini = 0.0\nsamples = 3\nvalue = [0, 0, 0, 0, 5, 0]"] ;
79 -> 83 ;
84 [label="gini = 0.0\nsamples = 1\nvalue = [0, 0, 0, 1, 0, 0]"] ;
78 -> 84 ;
85 [label="X[10] <= 10.1\ngini = 0.278\nsamples = 4\nvalue = [0, 0, 5, 0, 1, 0]"] ;
57 -> 85 ;
86 [label="gini = 0.0\nsamples = 2\nvalue = [0, 0, 4, 0, 0, 0]"] ;
85 -> 86 ;
87 [label="X[4] <= 0.091\ngini = 0.5\nsamples = 2\nvalue = [0, 0, 1, 0, 1, 0]"] ;
85 -> 87 ;
88 [label="gini = 0.0\nsamples = 1\nvalue = [0, 0, 1, 0, 0, 0]"] ;
87 -> 88 ;
89 [label="gini = 0.0\nsamples = 1\nvalue = [0, 0, 0, 0, 1, 0]"] ;
87 -> 89 ;
90 [label="X[9] <= 0.555\ngini = 0.609\nsamples = 600\nvalue = [5, 38, 425, 380, 61, 10]"] ;
0 -> 90 [labeldistance=2.5, labelangle=-45, headlabel="False"] ;
91 [label="X[8] <= 3.485\ngini = 0.494\nsamples = 173\nvalue = [3, 17, 166, 52, 8, 0]"] ;
90 -> 91 ;
92 [label="X[7] <= 0.995\ngini = 0.452\nsamples = 156\nvalue = [2, 9, 156, 45, 8, 0]"] ;
91 -> 92 ;
93 [label="X[9] <= 0.545\ngini = 0.623\nsamples = 18\nvalue = [0, 0, 9, 16, 7, 0]"] ;
92 -> 93 ;
94 [label="X[3] <= 2.3\ngini = 0.532\nsamples = 15\nvalue = [0, 0, 9, 16, 2, 0]"] ;
93 -> 94 ;
95 [label="X[7] <= 0.994\ngini = 0.266\nsamples = 11\nvalue = [0, 0, 3, 16, 0, 0]"] ;
94 -> 95 ;
96 [label="gini = 0.0\nsamples = 7\nvalue = [0, 0, 0, 13, 0, 0]"] ;
95 -> 96 ;
97 [label="X[3] <= 1.45\ngini = 0.5\nsamples = 4\nvalue = [0, 0, 3, 3, 0, 0]"] ;
95 -> 97 ;
98 [label="gini = 0.0\nsamples = 2\nvalue = [0, 0, 3, 0, 0, 0]"] ;
97 -> 98 ;
99 [label="gini = 0.0\nsamples = 2\nvalue = [0, 0, 0, 3, 0, 0]"] ;
97 -> 99 ;
100 [label="X[1] <= 0.5\ngini = 0.375\nsamples = 4\nvalue = [0, 0, 6, 0, 2, 0]"] ;
94 -> 100 ;
101 [label="gini = 0.0\nsamples = 1\nvalue = [0, 0, 0, 0, 2, 0]"] ;
100 -> 101 ;
102 [label="gini = 0.0\nsamples = 3\nvalue = [0, 0, 6, 0, 0, 0]"] ;
100 -> 102 ;
103 [label="gini = 0.0\nsamples = 3\nvalue = [0, 0, 0, 0, 5, 0]"] ;
93 -> 103 ;
104 [label="X[10] <= 11.05\ngini = 0.362\nsamples = 138\nvalue = [2, 9, 147, 29, 1, 0]"] ;
92 -> 104 ;
105 [label="X[5] <= 30.5\ngini = 0.338\nsamples = 134\nvalue = [2, 8, 147, 27, 0, 0]"] ;
104 -> 105 ;
106 [label="X[5] <= 29.5\ngini = 0.383\nsamples = 118\nvalue = [2, 8, 120, 27, 0, 0]"] ;
105 -> 106 ;
107 [label="X[0] <= 7.95\ngini = 0.359\nsamples = 115\nvalue = [2, 8, 120, 23, 0, 0]"] ;
106 -> 107 ;
108 [label="X[3] <= 4.925\ngini = 0.225\nsamples = 54\nvalue = [1, 1, 63, 7, 0, 0]"] ;
107 -> 108 ;
109 [label="X[1] <= 0.515\ngini = 0.163\nsamples = 51\nvalue = [0, 1, 62, 5, 0, 0]"] ;
108 -> 109 ;
110 [label="X[2] <= 0.03\ngini = 0.375\nsamples = 12\nvalue = [0, 0, 12, 4, 0, 0]"] ;
109 -> 110 ;
111 [label="gini = 0.0\nsamples = 1\nvalue = [0, 0, 0, 1, 0, 0]"] ;
110 -> 111 ;
112 [label="X[8] <= 3.31\ngini = 0.32\nsamples = 11\nvalue = [0, 0, 12, 3, 0, 0]"] ;
110 -> 112 ;
113 [label="X[2] <= 0.32\ngini = 0.5\nsamples = 4\nvalue = [0, 0, 3, 3, 0, 0]"] ;
112 -> 113 ;
114 [label="X[3] <= 2.75\ngini = 0.375\nsamples = 3\nvalue = [0, 0, 1, 3, 0, 0]"] ;
113 -> 114 ;
115 [label="gini = 0.0\nsamples = 2\nvalue = [0, 0, 0, 3, 0, 0]"] ;
114 -> 115 ;
116 [label="gini = 0.0\nsamples = 1\nvalue = [0, 0, 1, 0, 0, 0]"] ;
114 -> 116 ;
117 [label="gini = 0.0\nsamples = 1\nvalue = [0, 0, 2, 0, 0, 0]"] ;
113 -> 117 ;
118 [label="gini = 0.0\nsamples = 7\nvalue = [0, 0, 9, 0, 0, 0]"] ;
112 -> 118 ;
119 [label="X[6] <= 86.5\ngini = 0.075\nsamples = 39\nvalue = [0, 1, 50, 1, 0, 0]"] ;
109 -> 119 ;
120 [label="X[1] <= 0.56\ngini = 0.043\nsamples = 33\nvalue = [0, 1, 45, 0, 0, 0]"] ;
119 -> 120 ;
121 [label="X[10] <= 9.35\ngini = 0.278\nsamples = 5\nvalue = [0, 1, 5, 0, 0, 0]"] ;
120 -> 121 ;
122 [label="gini = 0.0\nsamples = 1\nvalue = [0, 1, 0, 0, 0, 0]"] ;
121 -> 122 ;
123 [label="gini = 0.0\nsamples = 4\nvalue = [0, 0, 5, 0, 0, 0]"] ;
121 -> 123 ;
124 [label="gini = 0.0\nsamples = 28\nvalue = [0, 0, 40, 0, 0, 0]"] ;
120 -> 124 ;
125 [label="X[4] <= 0.096\ngini = 0.278\nsamples = 6\nvalue = [0, 0, 5, 1, 0, 0]"] ;
119 -> 125 ;
126 [label="gini = 0.0\nsamples = 5\nvalue = [0, 0, 5, 0, 0, 0]"] ;
125 -> 126 ;
127 [label="gini = 0.0\nsamples = 1\nvalue = [0, 0, 0, 1, 0, 0]"] ;
125 -> 127 ;
128 [label="X[7] <= 0.997\ngini = 0.625\nsamples = 3\nvalue = [1, 0, 1, 2, 0, 0]"] ;
108 -> 128 ;
129 [label="gini = 0.0\nsamples = 1\nvalue = [0, 0, 0, 2, 0, 0]"] ;
128 -> 129 ;
130 [label="X[10] <= 9.7\ngini = 0.5\nsamples = 2\nvalue = [1, 0, 1, 0, 0, 0]"] ;
128 -> 130 ;
131 [label="gini = 0.0\nsamples = 1\nvalue = [0, 0, 1, 0, 0, 0]"] ;
130 -> 131 ;
132 [label="gini = 0.0\nsamples = 1\nvalue = [1, 0, 0, 0, 0, 0]"] ;
130 -> 132 ;
133 [label="X[1] <= 0.675\ngini = 0.458\nsamples = 61\nvalue = [1, 7, 57, 16, 0, 0]"] ;
107 -> 133 ;
134 [label="X[3] <= 3.1\ngini = 0.261\nsamples = 38\nvalue = [0, 1, 45, 7, 0, 0]"] ;
133 -> 134 ;
135 [label="X[7] <= 0.997\ngini = 0.158\nsamples = 32\nvalue = [0, 1, 43, 3, 0, 0]"] ;
134 -> 135 ;
136 [label="X[9] <= 0.455\ngini = 0.444\nsamples = 8\nvalue = [0, 0, 6, 3, 0, 0]"] ;
135 -> 136 ;
137 [label="gini = 0.0\nsamples = 1\nvalue = [0, 0, 2, 0, 0, 0]"] ;
136 -> 137 ;
138 [label="X[8] <= 3.275\ngini = 0.49\nsamples = 7\nvalue = [0, 0, 4, 3, 0, 0]"] ;
136 -> 138 ;
139 [label="X[2] <= 0.265\ngini = 0.48\nsamples = 5\nvalue = [0, 0, 2, 3, 0, 0]"] ;
138 -> 139 ;
140 [label="gini = 0.0\nsamples = 3\nvalue = [0, 0, 0, 3, 0, 0]"] ;
139 -> 140 ;
141 [label="gini = 0.0\nsamples = 2\nvalue = [0, 0, 2, 0, 0, 0]"] ;
139 -> 141 ;
142 [label="gini = 0.0\nsamples = 2\nvalue = [0, 0, 2, 0, 0, 0]"] ;
138 -> 142 ;
143 [label="X[6] <= 14.5\ngini = 0.051\nsamples = 24\nvalue = [0, 1, 37, 0, 0, 0]"] ;
135 -> 143 ;
144 [label="X[2] <= 0.205\ngini = 0.5\nsamples = 2\nvalue = [0, 1, 1, 0, 0, 0]"] ;
143 -> 144 ;
145 [label="gini = 0.0\nsamples = 1\nvalue = [0, 0, 1, 0, 0, 0]"] ;
144 -> 145 ;
146 [label="gini = 0.0\nsamples = 1\nvalue = [0, 1, 0, 0, 0, 0]"] ;
144 -> 146 ;
147 [label="gini = 0.0\nsamples = 22\nvalue = [0, 0, 36, 0, 0, 0]"] ;
143 -> 147 ;
148 [label="X[10] <= 10.25\ngini = 0.444\nsamples = 6\nvalue = [0, 0, 2, 4, 0, 0]"] ;
134 -> 148 ;
149 [label="X[6] <= 86.5\ngini = 0.444\nsamples = 3\nvalue = [0, 0, 2, 1, 0, 0]"] ;
148 -> 149 ;
150 [label="gini = 0.0\nsamples = 2\nvalue = [0, 0, 2, 0, 0, 0]"] ;
149 -> 150 ;
151 [label="gini = 0.0\nsamples = 1\nvalue = [0, 0, 0, 1, 0, 0]"] ;
149 -> 151 ;
152 [label="gini = 0.0\nsamples = 3\nvalue = [0, 0, 0, 3, 0, 0]"] ;
148 -> 152 ;
153 [label="X[3] <= 2.05\ngini = 0.666\nsamples = 23\nvalue = [1, 6, 12, 9, 0, 0]"] ;
133 -> 153 ;
154 [label="X[8] <= 3.31\ngini = 0.32\nsamples = 4\nvalue = [0, 4, 1, 0, 0, 0]"] ;
153 -> 154 ;
155 [label="gini = 0.0\nsamples = 3\nvalue = [0, 4, 0, 0, 0, 0]"] ;
154 -> 155 ;
156 [label="gini = 0.0\nsamples = 1\nvalue = [0, 0, 1, 0, 0, 0]"] ;
154 -> 156 ;
157 [label="X[8] <= 3.34\ngini = 0.609\nsamples = 19\nvalue = [1, 2, 11, 9, 0, 0]"] ;
153 -> 157 ;
158 [label="X[10] <= 9.75\ngini = 0.375\nsamples = 10\nvalue = [0, 0, 3, 9, 0, 0]"] ;
157 -> 158 ;
159 [label="X[10] <= 9.45\ngini = 0.198\nsamples = 7\nvalue = [0, 0, 1, 8, 0, 0]"] ;
158 -> 159 ;
160 [label="X[8] <= 3.21\ngini = 0.444\nsamples = 3\nvalue = [0, 0, 1, 2, 0, 0]"] ;
159 -> 160 ;
161 [label="gini = 0.0\nsamples = 1\nvalue = [0, 0, 1, 0, 0, 0]"] ;
160 -> 161 ;
162 [label="gini = 0.0\nsamples = 2\nvalue = [0, 0, 0, 2, 0, 0]"] ;
160 -> 162 ;
163 [label="gini = 0.0\nsamples = 4\nvalue = [0, 0, 0, 6, 0, 0]"] ;
159 -> 163 ;
164 [label="X[9] <= 0.505\ngini = 0.444\nsamples = 3\nvalue = [0, 0, 2, 1, 0, 0]"] ;
158 -> 164 ;
165 [label="X[0] <= 8.05\ngini = 0.5\nsamples = 2\nvalue = [0, 0, 1, 1, 0, 0]"] ;
164 -> 165 ;
166 [label="gini = 0.0\nsamples = 1\nvalue = [0, 0, 0, 1, 0, 0]"] ;
165 -> 166 ;
167 [label="gini = 0.0\nsamples = 1\nvalue = [0, 0, 1, 0, 0, 0]"] ;
165 -> 167 ;
168 [label="gini = 0.0\nsamples = 1\nvalue = [0, 0, 1, 0, 0, 0]"] ;
164 -> 168 ;
169 [label="X[6] <= 29.5\ngini = 0.43\nsamples = 9\nvalue = [1, 2, 8, 0, 0, 0]"] ;
157 -> 169 ;
170 [label="X[5] <= 9.0\ngini = 0.625\nsamples = 4\nvalue = [1, 2, 1, 0, 0, 0]"] ;
169 -> 170 ;
171 [label="X[3] <= 3.75\ngini = 0.5\nsamples = 2\nvalue = [1, 0, 1, 0, 0, 0]"] ;
170 -> 171 ;
172 [label="gini = 0.0\nsamples = 1\nvalue = [1, 0, 0, 0, 0, 0]"] ;
171 -> 172 ;
173 [label="gini = 0.0\nsamples = 1\nvalue = [0, 0, 1, 0, 0, 0]"] ;
171 -> 173 ;
174 [label="gini = 0.0\nsamples = 2\nvalue = [0, 2, 0, 0, 0, 0]"] ;
170 -> 174 ;
175 [label="gini = 0.0\nsamples = 5\nvalue = [0, 0, 7, 0, 0, 0]"] ;
169 -> 175 ;
176 [label="gini = 0.0\nsamples = 3\nvalue = [0, 0, 0, 4, 0, 0]"] ;
106 -> 176 ;
177 [label="gini = 0.0\nsamples = 16\nvalue = [0, 0, 27, 0, 0, 0]"] ;
105 -> 177 ;
178 [label="X[9] <= 0.525\ngini = 0.625\nsamples = 4\nvalue = [0, 1, 0, 2, 1, 0]"] ;
104 -> 178 ;
179 [label="X[1] <= 0.545\ngini = 0.5\nsamples = 2\nvalue = [0, 1, 0, 0, 1, 0]"] ;
178 -> 179 ;
180 [label="gini = 0.0\nsamples = 1\nvalue = [0, 0, 0, 0, 1, 0]"] ;
179 -> 180 ;
181 [label="gini = 0.0\nsamples = 1\nvalue = [0, 1, 0, 0, 0, 0]"] ;
179 -> 181 ;
182 [label="gini = 0.0\nsamples = 2\nvalue = [0, 0, 0, 2, 0, 0]"] ;
178 -> 182 ;
183 [label="X[5] <= 23.5\ngini = 0.683\nsamples = 17\nvalue = [1, 8, 10, 7, 0, 0]"] ;
91 -> 183 ;
184 [label="X[9] <= 0.485\ngini = 0.658\nsamples = 15\nvalue = [1, 8, 10, 4, 0, 0]"] ;
183 -> 184 ;
185 [label="X[10] <= 11.65\ngini = 0.278\nsamples = 3\nvalue = [0, 5, 0, 1, 0, 0]"] ;
184 -> 185 ;
186 [label="gini = 0.0\nsamples = 2\nvalue = [0, 5, 0, 0, 0, 0]"] ;
185 -> 186 ;
187 [label="gini = 0.0\nsamples = 1\nvalue = [0, 0, 0, 1, 0, 0]"] ;
185 -> 187 ;
188 [label="X[8] <= 3.585\ngini = 0.588\nsamples = 12\nvalue = [1, 3, 10, 3, 0, 0]"] ;
184 -> 188 ;
189 [label="X[4] <= 0.048\ngini = 0.379\nsamples = 9\nvalue = [0, 2, 10, 1, 0, 0]"] ;
188 -> 189 ;
190 [label="gini = 0.0\nsamples = 1\nvalue = [0, 0, 0, 1, 0, 0]"] ;
189 -> 190 ;
191 [label="X[1] <= 0.84\ngini = 0.278\nsamples = 8\nvalue = [0, 2, 10, 0, 0, 0]"] ;
189 -> 191 ;
192 [label="gini = 0.0\nsamples = 5\nvalue = [0, 0, 8, 0, 0, 0]"] ;
191 -> 192 ;
193 [label="X[9] <= 0.505\ngini = 0.5\nsamples = 3\nvalue = [0, 2, 2, 0, 0, 0]"] ;
191 -> 193 ;
194 [label="gini = 0.0\nsamples = 1\nvalue = [0, 2, 0, 0, 0, 0]"] ;
193 -> 194 ;
195 [label="gini = 0.0\nsamples = 2\nvalue = [0, 0, 2, 0, 0, 0]"] ;
193 -> 195 ;
196 [label="X[6] <= 11.5\ngini = 0.625\nsamples = 3\nvalue = [1, 1, 0, 2, 0, 0]"] ;
188 -> 196 ;
197 [label="gini = 0.0\nsamples = 1\nvalue = [0, 0, 0, 2, 0, 0]"] ;
196 -> 197 ;
198 [label="X[1] <= 1.102\ngini = 0.5\nsamples = 2\nvalue = [1, 1, 0, 0, 0, 0]"] ;
196 -> 198 ;
199 [label="gini = 0.0\nsamples = 1\nvalue = [0, 1, 0, 0, 0, 0]"] ;
198 -> 199 ;
200 [label="gini = 0.0\nsamples = 1\nvalue = [1, 0, 0, 0, 0, 0]"] ;
198 -> 200 ;
201 [label="gini = 0.0\nsamples = 2\nvalue = [0, 0, 0, 3, 0, 0]"] ;
183 -> 201 ;
202 [label="X[3] <= 4.95\ngini = 0.607\nsamples = 427\nvalue = [2, 21, 259, 328, 53, 10]"] ;
90 -> 202 ;
203 [label="X[1] <= 0.605\ngini = 0.601\nsamples = 402\nvalue = [2, 18, 232, 321, 50, 10]"] ;
202 -> 203 ;
204 [label="X[9] <= 0.715\ngini = 0.601\nsamples = 269\nvalue = [2, 10, 135, 237, 45, 9]"] ;
203 -> 204 ;
205 [label="X[5] <= 19.5\ngini = 0.544\nsamples = 174\nvalue = [0, 9, 97, 164, 13, 0]"] ;
204 -> 205 ;
206 [label="X[10] <= 9.75\ngini = 0.5\nsamples = 124\nvalue = [0, 5, 55, 132, 11, 0]"] ;
205 -> 206 ;
207 [label="X[8] <= 3.365\ngini = 0.556\nsamples = 43\nvalue = [0, 0, 29, 31, 4, 0]"] ;
206 -> 207 ;
208 [label="X[10] <= 9.35\ngini = 0.53\nsamples = 31\nvalue = [0, 0, 15, 26, 3, 0]"] ;
207 -> 208 ;
209 [label="X[0] <= 6.7\ngini = 0.266\nsamples = 14\nvalue = [0, 0, 3, 16, 0, 0]"] ;
208 -> 209 ;
210 [label="gini = 0.0\nsamples = 2\nvalue = [0, 0, 2, 0, 0, 0]"] ;
209 -> 210 ;
211 [label="X[10] <= 9.25\ngini = 0.111\nsamples = 12\nvalue = [0, 0, 1, 16, 0, 0]"] ;
209 -> 211 ;
212 [label="gini = 0.0\nsamples = 6\nvalue = [0, 0, 0, 9, 0, 0]"] ;
211 -> 212 ;
213 [label="X[7] <= 0.999\ngini = 0.219\nsamples = 6\nvalue = [0, 0, 1, 7, 0, 0]"] ;
211 -> 213 ;
214 [label="X[0] <= 9.6\ngini = 0.375\nsamples = 3\nvalue = [0, 0, 1, 3, 0, 0]"] ;
213 -> 214 ;
215 [label="X[5] <= 8.0\ngini = 0.5\nsamples = 2\nvalue = [0, 0, 1, 1, 0, 0]"] ;
214 -> 215 ;
216 [label="gini = 0.0\nsamples = 1\nvalue = [0, 0, 0, 1, 0, 0]"] ;
215 -> 216 ;
217 [label="gini = 0.0\nsamples = 1\nvalue = [0, 0, 1, 0, 0, 0]"] ;
215 -> 217 ;
218 [label="gini = 0.0\nsamples = 1\nvalue = [0, 0, 0, 2, 0, 0]"] ;
214 -> 218 ;
219 [label="gini = 0.0\nsamples = 3\nvalue = [0, 0, 0, 4, 0, 0]"] ;
213 -> 219 ;
220 [label="X[9] <= 0.615\ngini = 0.595\nsamples = 17\nvalue = [0, 0, 12, 10, 3, 0]"] ;
208 -> 220 ;
221 [label="X[3] <= 2.25\ngini = 0.595\nsamples = 8\nvalue = [0, 0, 2, 6, 3, 0]"] ;
220 -> 221 ;
222 [label="X[4] <= 0.073\ngini = 0.406\nsamples = 6\nvalue = [0, 0, 1, 6, 1, 0]"] ;
221 -> 222 ;
223 [label="X[5] <= 6.0\ngini = 0.5\nsamples = 2\nvalue = [0, 0, 1, 0, 1, 0]"] ;
222 -> 223 ;
224 [label="gini = 0.0\nsamples = 1\nvalue = [0, 0, 1, 0, 0, 0]"] ;
223 -> 224 ;
225 [label="gini = 0.0\nsamples = 1\nvalue = [0, 0, 0, 0, 1, 0]"] ;
223 -> 225 ;
226 [label="gini = 0.0\nsamples = 4\nvalue = [0, 0, 0, 6, 0, 0]"] ;
222 -> 226 ;
227 [label="X[7] <= 0.998\ngini = 0.444\nsamples = 2\nvalue = [0, 0, 1, 0, 2, 0]"] ;
221 -> 227 ;
228 [label="gini = 0.0\nsamples = 1\nvalue = [0, 0, 1, 0, 0, 0]"] ;
227 -> 228 ;
229 [label="gini = 0.0\nsamples = 1\nvalue = [0, 0, 0, 0, 2, 0]"] ;
227 -> 229 ;
230 [label="X[9] <= 0.68\ngini = 0.408\nsamples = 9\nvalue = [0, 0, 10, 4, 0, 0]"] ;
220 -> 230 ;
231 [label="X[5] <= 6.5\ngini = 0.278\nsamples = 8\nvalue = [0, 0, 10, 2, 0, 0]"] ;
230 -> 231 ;
232 [label="X[8] <= 3.115\ngini = 0.5\nsamples = 2\nvalue = [0, 0, 1, 1, 0, 0]"] ;
231 -> 232 ;
233 [label="gini = 0.0\nsamples = 1\nvalue = [0, 0, 1, 0, 0, 0]"] ;
232 -> 233 ;
234 [label="gini = 0.0\nsamples = 1\nvalue = [0, 0, 0, 1, 0, 0]"] ;
232 -> 234 ;
235 [label="X[0] <= 7.75\ngini = 0.18\nsamples = 6\nvalue = [0, 0, 9, 1, 0, 0]"] ;
231 -> 235 ;
236 [label="X[7] <= 0.996\ngini = 0.444\nsamples = 2\nvalue = [0, 0, 2, 1, 0, 0]"] ;
235 -> 236 ;
237 [label="gini = 0.0\nsamples = 1\nvalue = [0, 0, 2, 0, 0, 0]"] ;
236 -> 237 ;
238 [label="gini = 0.0\nsamples = 1\nvalue = [0, 0, 0, 1, 0, 0]"] ;
236 -> 238 ;
239 [label="gini = 0.0\nsamples = 4\nvalue = [0, 0, 7, 0, 0, 0]"] ;
235 -> 239 ;
240 [label="gini = 0.0\nsamples = 1\nvalue = [0, 0, 0, 2, 0, 0]"] ;
230 -> 240 ;
241 [label="X[1] <= 0.585\ngini = 0.445\nsamples = 12\nvalue = [0, 0, 14, 5, 1, 0]"] ;
207 -> 241 ;
242 [label="X[2] <= 0.18\ngini = 0.227\nsamples = 11\nvalue = [0, 0, 14, 1, 1, 0]"] ;
241 -> 242 ;
243 [label="X[0] <= 7.05\ngini = 0.5\nsamples = 5\nvalue = [0, 0, 4, 1, 1, 0]"] ;
242 -> 243 ;
244 [label="X[2] <= 0.03\ngini = 0.32\nsamples = 4\nvalue = [0, 0, 4, 1, 0, 0]"] ;
243 -> 244 ;
245 [label="gini = 0.0\nsamples = 2\nvalue = [0, 0, 3, 0, 0, 0]"] ;
244 -> 245 ;
246 [label="X[7] <= 0.996\ngini = 0.5\nsamples = 2\nvalue = [0, 0, 1, 1, 0, 0]"] ;
244 -> 246 ;
247 [label="gini = 0.0\nsamples = 1\nvalue = [0, 0, 1, 0, 0, 0]"] ;
246 -> 247 ;
248 [label="gini = 0.0\nsamples = 1\nvalue = [0, 0, 0, 1, 0, 0]"] ;
246 -> 248 ;
249 [label="gini = 0.0\nsamples = 1\nvalue = [0, 0, 0, 0, 1, 0]"] ;
243 -> 249 ;
250 [label="gini = 0.0\nsamples = 6\nvalue = [0, 0, 10, 0, 0, 0]"] ;
242 -> 250 ;
251 [label="gini = 0.0\nsamples = 1\nvalue = [0, 0, 0, 4, 0, 0]"] ;
241 -> 251 ;
252 [label="X[8] <= 3.595\ngini = 0.433\nsamples = 81\nvalue = [0, 5, 26, 101, 7, 0]"] ;
206 -> 252 ;
253 [label="X[4] <= 0.091\ngini = 0.362\nsamples = 75\nvalue = [0, 4, 16, 99, 7, 0]"] ;
252 -> 253 ;
254 [label="X[0] <= 9.35\ngini = 0.238\nsamples = 56\nvalue = [0, 2, 7, 86, 4, 0]"] ;
253 -> 254 ;
255 [label="X[7] <= 0.998\ngini = 0.322\nsamples = 41\nvalue = [0, 2, 6, 53, 4, 0]"] ;
254 -> 255 ;
256 [label="X[9] <= 0.705\ngini = 0.283\nsamples = 39\nvalue = [0, 2, 4, 53, 4, 0]"] ;
255 -> 256 ;
257 [label="X[3] <= 2.15\ngini = 0.266\nsamples = 37\nvalue = [0, 2, 3, 52, 4, 0]"] ;
256 -> 257 ;
258 [label="X[0] <= 6.15\ngini = 0.105\nsamples = 22\nvalue = [0, 0, 2, 34, 0, 0]"] ;
257 -> 258 ;
259 [label="X[10] <= 11.8\ngini = 0.5\nsamples = 2\nvalue = [0, 0, 1, 1, 0, 0]"] ;
258 -> 259 ;
260 [label="gini = 0.0\nsamples = 1\nvalue = [0, 0, 1, 0, 0, 0]"] ;
259 -> 260 ;
261 [label="gini = 0.0\nsamples = 1\nvalue = [0, 0, 0, 1, 0, 0]"] ;
259 -> 261 ;
262 [label="X[6] <= 32.5\ngini = 0.057\nsamples = 20\nvalue = [0, 0, 1, 33, 0, 0]"] ;
258 -> 262 ;
263 [label="gini = 0.0\nsamples = 11\nvalue = [0, 0, 0, 18, 0, 0]"] ;
262 -> 263 ;
264 [label="X[10] <= 10.25\ngini = 0.117\nsamples = 9\nvalue = [0, 0, 1, 15, 0, 0]"] ;
262 -> 264 ;
265 [label="gini = 0.0\nsamples = 4\nvalue = [0, 0, 0, 9, 0, 0]"] ;
264 -> 265 ;
266 [label="X[2] <= 0.215\ngini = 0.245\nsamples = 5\nvalue = [0, 0, 1, 6, 0, 0]"] ;
264 -> 266 ;
267 [label="X[7] <= 0.995\ngini = 0.5\nsamples = 2\nvalue = [0, 0, 1, 1, 0, 0]"] ;
266 -> 267 ;
268 [label="gini = 0.0\nsamples = 1\nvalue = [0, 0, 0, 1, 0, 0]"] ;
267 -> 268 ;
269 [label="gini = 0.0\nsamples = 1\nvalue = [0, 0, 1, 0, 0, 0]"] ;
267 -> 269 ;
270 [label="gini = 0.0\nsamples = 3\nvalue = [0, 0, 0, 5, 0, 0]"] ;
266 -> 270 ;
271 [label="X[9] <= 0.595\ngini = 0.448\nsamples = 15\nvalue = [0, 2, 1, 18, 4, 0]"] ;
257 -> 271 ;
272 [label="X[8] <= 3.235\ngini = 0.611\nsamples = 5\nvalue = [0, 2, 1, 3, 0, 0]"] ;
271 -> 272 ;
273 [label="gini = 0.0\nsamples = 1\nvalue = [0, 0, 1, 0, 0, 0]"] ;
272 -> 273 ;
274 [label="X[2] <= 0.11\ngini = 0.48\nsamples = 4\nvalue = [0, 2, 0, 3, 0, 0]"] ;
272 -> 274 ;
275 [label="X[5] <= 11.0\ngini = 0.444\nsamples = 2\nvalue = [0, 2, 0, 1, 0, 0]"] ;
274 -> 275 ;
276 [label="gini = 0.0\nsamples = 1\nvalue = [0, 2, 0, 0, 0, 0]"] ;
275 -> 276 ;
277 [label="gini = 0.0\nsamples = 1\nvalue = [0, 0, 0, 1, 0, 0]"] ;
275 -> 277 ;
278 [label="gini = 0.0\nsamples = 2\nvalue = [0, 0, 0, 2, 0, 0]"] ;
274 -> 278 ;
279 [label="X[0] <= 8.25\ngini = 0.332\nsamples = 10\nvalue = [0, 0, 0, 15, 4, 0]"] ;
271 -> 279 ;
280 [label="X[10] <= 10.35\ngini = 0.208\nsamples = 9\nvalue = [0, 0, 0, 15, 2, 0]"] ;
279 -> 280 ;
281 [label="gini = 0.0\nsamples = 1\nvalue = [0, 0, 0, 0, 1, 0]"] ;
280 -> 281 ;
282 [label="X[10] <= 11.65\ngini = 0.117\nsamples = 8\nvalue = [0, 0, 0, 15, 1, 0]"] ;
280 -> 282 ;
283 [label="gini = 0.0\nsamples = 7\nvalue = [0, 0, 0, 15, 0, 0]"] ;
282 -> 283 ;
284 [label="gini = 0.0\nsamples = 1\nvalue = [0, 0, 0, 0, 1, 0]"] ;
282 -> 284 ;
285 [label="gini = 0.0\nsamples = 1\nvalue = [0, 0, 0, 0, 2, 0]"] ;
279 -> 285 ;
286 [label="X[2] <= 0.285\ngini = 0.5\nsamples = 2\nvalue = [0, 0, 1, 1, 0, 0]"] ;
256 -> 286 ;
287 [label="gini = 0.0\nsamples = 1\nvalue = [0, 0, 1, 0, 0, 0]"] ;
286 -> 287 ;
288 [label="gini = 0.0\nsamples = 1\nvalue = [0, 0, 0, 1, 0, 0]"] ;
286 -> 288 ;
289 [label="gini = 0.0\nsamples = 2\nvalue = [0, 0, 2, 0, 0, 0]"] ;
255 -> 289 ;
290 [label="X[0] <= 12.3\ngini = 0.057\nsamples = 15\nvalue = [0, 0, 1, 33, 0, 0]"] ;
254 -> 290 ;
291 [label="gini = 0.0\nsamples = 13\nvalue = [0, 0, 0, 32, 0, 0]"] ;
290 -> 291 ;
292 [label="X[5] <= 6.0\ngini = 0.5\nsamples = 2\nvalue = [0, 0, 1, 1, 0, 0]"] ;
290 -> 292 ;
293 [label="gini = 0.0\nsamples = 1\nvalue = [0, 0, 1, 0, 0, 0]"] ;
292 -> 293 ;
294 [label="gini = 0.0\nsamples = 1\nvalue = [0, 0, 0, 1, 0, 0]"] ;
292 -> 294 ;
295 [label="X[1] <= 0.52\ngini = 0.639\nsamples = 19\nvalue = [0, 2, 9, 13, 3, 0]"] ;
253 -> 295 ;
296 [label="X[7] <= 0.998\ngini = 0.602\nsamples = 13\nvalue = [0, 1, 8, 2, 3, 0]"] ;
295 -> 296 ;
297 [label="X[8] <= 3.21\ngini = 0.694\nsamples = 7\nvalue = [0, 1, 1, 2, 3, 0]"] ;
296 -> 297 ;
298 [label="gini = 0.0\nsamples = 3\nvalue = [0, 0, 0, 0, 3, 0]"] ;
297 -> 298 ;
299 [label="X[7] <= 0.996\ngini = 0.625\nsamples = 4\nvalue = [0, 1, 1, 2, 0, 0]"] ;
297 -> 299 ;
300 [label="X[6] <= 9.0\ngini = 0.444\nsamples = 3\nvalue = [0, 1, 0, 2, 0, 0]"] ;
299 -> 300 ;
301 [label="gini = 0.0\nsamples = 1\nvalue = [0, 1, 0, 0, 0, 0]"] ;
300 -> 301 ;
302 [label="gini = 0.0\nsamples = 2\nvalue = [0, 0, 0, 2, 0, 0]"] ;
300 -> 302 ;
303 [label="gini = 0.0\nsamples = 1\nvalue = [0, 0, 1, 0, 0, 0]"] ;
299 -> 303 ;
304 [label="gini = 0.0\nsamples = 6\nvalue = [0, 0, 7, 0, 0, 0]"] ;
296 -> 304 ;
305 [label="X[4] <= 0.115\ngini = 0.272\nsamples = 6\nvalue = [0, 1, 1, 11, 0, 0]"] ;
295 -> 305 ;
306 [label="gini = 0.0\nsamples = 1\nvalue = [0, 0, 1, 0, 0, 0]"] ;
305 -> 306 ;
307 [label="X[9] <= 0.635\ngini = 0.153\nsamples = 5\nvalue = [0, 1, 0, 11, 0, 0]"] ;
305 -> 307 ;
308 [label="gini = 0.0\nsamples = 4\nvalue = [0, 0, 0, 11, 0, 0]"] ;
307 -> 308 ;
309 [label="gini = 0.0\nsamples = 1\nvalue = [0, 1, 0, 0, 0, 0]"] ;
307 -> 309 ;
310 [label="X[3] <= 1.5\ngini = 0.379\nsamples = 6\nvalue = [0, 1, 10, 2, 0, 0]"] ;
252 -> 310 ;
311 [label="gini = 0.0\nsamples = 1\nvalue = [0, 0, 0, 2, 0, 0]"] ;
310 -> 311 ;
312 [label="X[7] <= 0.995\ngini = 0.165\nsamples = 5\nvalue = [0, 1, 10, 0, 0, 0]"] ;
310 -> 312 ;
313 [label="gini = 0.0\nsamples = 2\nvalue = [0, 0, 6, 0, 0, 0]"] ;
312 -> 313 ;
314 [label="X[5] <= 6.0\ngini = 0.32\nsamples = 3\nvalue = [0, 1, 4, 0, 0, 0]"] ;
312 -> 314 ;
315 [label="gini = 0.0\nsamples = 1\nvalue = [0, 1, 0, 0, 0, 0]"] ;
314 -> 315 ;
316 [label="gini = 0.0\nsamples = 2\nvalue = [0, 0, 4, 0, 0, 0]"] ;
314 -> 316 ;
317 [label="X[10] <= 10.65\ngini = 0.561\nsamples = 50\nvalue = [0, 4, 42, 32, 2, 0]"] ;
205 -> 317 ;
318 [label="X[6] <= 70.5\ngini = 0.518\nsamples = 36\nvalue = [0, 4, 36, 14, 2, 0]"] ;
317 -> 318 ;
319 [label="X[5] <= 32.5\ngini = 0.635\nsamples = 19\nvalue = [0, 4, 16, 11, 2, 0]"] ;
318 -> 319 ;
320 [label="X[3] <= 3.65\ngini = 0.672\nsamples = 16\nvalue = [0, 4, 9, 11, 2, 0]"] ;
319 -> 320 ;
321 [label="X[5] <= 22.5\ngini = 0.574\nsamples = 15\nvalue = [0, 0, 9, 11, 2, 0]"] ;
320 -> 321 ;
322 [label="X[7] <= 0.997\ngini = 0.278\nsamples = 5\nvalue = [0, 0, 5, 1, 0, 0]"] ;
321 -> 322 ;
323 [label="X[9] <= 0.61\ngini = 0.5\nsamples = 2\nvalue = [0, 0, 1, 1, 0, 0]"] ;
322 -> 323 ;
324 [label="gini = 0.0\nsamples = 1\nvalue = [0, 0, 0, 1, 0, 0]"] ;
323 -> 324 ;
325 [label="gini = 0.0\nsamples = 1\nvalue = [0, 0, 1, 0, 0, 0]"] ;
323 -> 325 ;
326 [label="gini = 0.0\nsamples = 3\nvalue = [0, 0, 4, 0, 0, 0]"] ;
322 -> 326 ;
327 [label="X[6] <= 61.5\ngini = 0.531\nsamples = 10\nvalue = [0, 0, 4, 10, 2, 0]"] ;
321 -> 327 ;
328 [label="X[9] <= 0.645\ngini = 0.625\nsamples = 7\nvalue = [0, 0, 4, 2, 2, 0]"] ;
327 -> 328 ;
329 [label="X[3] <= 1.95\ngini = 0.32\nsamples = 4\nvalue = [0, 0, 4, 1, 0, 0]"] ;
328 -> 329 ;
330 [label="X[6] <= 52.5\ngini = 0.5\nsamples = 2\nvalue = [0, 0, 1, 1, 0, 0]"] ;
329 -> 330 ;
331 [label="gini = 0.0\nsamples = 1\nvalue = [0, 0, 1, 0, 0, 0]"] ;
330 -> 331 ;
332 [label="gini = 0.0\nsamples = 1\nvalue = [0, 0, 0, 1, 0, 0]"] ;
330 -> 332 ;
333 [label="gini = 0.0\nsamples = 2\nvalue = [0, 0, 3, 0, 0, 0]"] ;
329 -> 333 ;
334 [label="X[7] <= 0.996\ngini = 0.444\nsamples = 3\nvalue = [0, 0, 0, 1, 2, 0]"] ;
328 -> 334 ;
335 [label="gini = 0.0\nsamples = 1\nvalue = [0, 0, 0, 1, 0, 0]"] ;
334 -> 335 ;
336 [label="gini = 0.0\nsamples = 2\nvalue = [0, 0, 0, 0, 2, 0]"] ;
334 -> 336 ;
337 [label="gini = 0.0\nsamples = 3\nvalue = [0, 0, 0, 8, 0, 0]"] ;
327 -> 337 ;
338 [label="gini = 0.0\nsamples = 1\nvalue = [0, 4, 0, 0, 0, 0]"] ;
320 -> 338 ;
339 [label="gini = 0.0\nsamples = 3\nvalue = [0, 0, 7, 0, 0, 0]"] ;
319 -> 339 ;
340 [label="X[5] <= 32.5\ngini = 0.227\nsamples = 17\nvalue = [0, 0, 20, 3, 0, 0]"] ;
318 -> 340 ;
341 [label="X[6] <= 96.0\ngini = 0.165\nsamples = 16\nvalue = [0, 0, 20, 2, 0, 0]"] ;
340 -> 341 ;
342 [label="X[8] <= 3.26\ngini = 0.298\nsamples = 8\nvalue = [0, 0, 9, 2, 0, 0]"] ;
341 -> 342 ;
343 [label="gini = 0.0\nsamples = 1\nvalue = [0, 0, 0, 1, 0, 0]"] ;
342 -> 343 ;
344 [label="X[10] <= 9.6\ngini = 0.18\nsamples = 7\nvalue = [0, 0, 9, 1, 0, 0]"] ;
342 -> 344 ;
345 [label="X[8] <= 3.395\ngini = 0.444\nsamples = 3\nvalue = [0, 0, 2, 1, 0, 0]"] ;
344 -> 345 ;
346 [label="gini = 0.0\nsamples = 1\nvalue = [0, 0, 0, 1, 0, 0]"] ;
345 -> 346 ;
347 [label="gini = 0.0\nsamples = 2\nvalue = [0, 0, 2, 0, 0, 0]"] ;
345 -> 347 ;
348 [label="gini = 0.0\nsamples = 4\nvalue = [0, 0, 7, 0, 0, 0]"] ;
344 -> 348 ;
349 [label="gini = 0.0\nsamples = 8\nvalue = [0, 0, 11, 0, 0, 0]"] ;
341 -> 349 ;
350 [label="gini = 0.0\nsamples = 1\nvalue = [0, 0, 0, 1, 0, 0]"] ;
340 -> 350 ;
351 [label="X[3] <= 2.55\ngini = 0.375\nsamples = 14\nvalue = [0, 0, 6, 18, 0, 0]"] ;
317 -> 351 ;
352 [label="X[6] <= 40.5\ngini = 0.105\nsamples = 11\nvalue = [0, 0, 1, 17, 0, 0]"] ;
351 -> 352 ;
353 [label="gini = 0.0\nsamples = 1\nvalue = [0, 0, 1, 0, 0, 0]"] ;
352 -> 353 ;
354 [label="gini = 0.0\nsamples = 10\nvalue = [0, 0, 0, 17, 0, 0]"] ;
352 -> 354 ;
355 [label="X[10] <= 10.8\ngini = 0.278\nsamples = 3\nvalue = [0, 0, 5, 1, 0, 0]"] ;
351 -> 355 ;
356 [label="gini = 0.0\nsamples = 1\nvalue = [0, 0, 0, 1, 0, 0]"] ;
355 -> 356 ;
357 [label="gini = 0.0\nsamples = 2\nvalue = [0, 0, 5, 0, 0, 0]"] ;
355 -> 357 ;
358 [label="X[10] <= 12.45\ngini = 0.672\nsamples = 95\nvalue = [2, 1, 38, 73, 32, 9]"] ;
204 -> 358 ;
359 [label="X[4] <= 0.104\ngini = 0.582\nsamples = 82\nvalue = [2, 1, 36, 72, 16, 0]"] ;
358 -> 359 ;
360 [label="X[8] <= 3.345\ngini = 0.483\nsamples = 57\nvalue = [0, 0, 13, 56, 13, 0]"] ;
359 -> 360 ;
361 [label="X[3] <= 4.05\ngini = 0.595\nsamples = 35\nvalue = [0, 0, 8, 25, 13, 0]"] ;
360 -> 361 ;
362 [label="X[4] <= 0.071\ngini = 0.573\nsamples = 33\nvalue = [0, 0, 8, 25, 10, 0]"] ;
361 -> 362 ;
363 [label="X[0] <= 8.45\ngini = 0.663\nsamples = 10\nvalue = [0, 0, 5, 4, 4, 0]"] ;
362 -> 363 ;
364 [label="gini = 0.0\nsamples = 4\nvalue = [0, 0, 0, 0, 4, 0]"] ;
363 -> 364 ;
365 [label="X[4] <= 0.049\ngini = 0.494\nsamples = 6\nvalue = [0, 0, 5, 4, 0, 0]"] ;
363 -> 365 ;
366 [label="gini = 0.0\nsamples = 1\nvalue = [0, 0, 0, 2, 0, 0]"] ;
365 -> 366 ;
367 [label="X[3] <= 1.95\ngini = 0.408\nsamples = 5\nvalue = [0, 0, 5, 2, 0, 0]"] ;
365 -> 367 ;
368 [label="gini = 0.0\nsamples = 1\nvalue = [0, 0, 0, 1, 0, 0]"] ;
367 -> 368 ;
369 [label="X[9] <= 0.835\ngini = 0.278\nsamples = 4\nvalue = [0, 0, 5, 1, 0, 0]"] ;
367 -> 369 ;
370 [label="gini = 0.0\nsamples = 2\nvalue = [0, 0, 4, 0, 0, 0]"] ;
369 -> 370 ;
371 [label="X[2] <= 0.565\ngini = 0.5\nsamples = 2\nvalue = [0, 0, 1, 1, 0, 0]"] ;
369 -> 371 ;
372 [label="gini = 0.0\nsamples = 1\nvalue = [0, 0, 0, 1, 0, 0]"] ;
371 -> 372 ;
373 [label="gini = 0.0\nsamples = 1\nvalue = [0, 0, 1, 0, 0, 0]"] ;
371 -> 373 ;
374 [label="X[1] <= 0.51\ngini = 0.46\nsamples = 23\nvalue = [0, 0, 3, 21, 6, 0]"] ;
362 -> 374 ;
375 [label="X[6] <= 122.0\ngini = 0.351\nsamples = 19\nvalue = [0, 0, 3, 19, 2, 0]"] ;
374 -> 375 ;
376 [label="X[5] <= 28.5\ngini = 0.302\nsamples = 18\nvalue = [0, 0, 2, 19, 2, 0]"] ;
375 -> 376 ;
377 [label="X[8] <= 3.04\ngini = 0.198\nsamples = 14\nvalue = [0, 0, 0, 16, 2, 0]"] ;
376 -> 377 ;
378 [label="X[5] <= 14.0\ngini = 0.5\nsamples = 2\nvalue = [0, 0, 0, 1, 1, 0]"] ;
377 -> 378 ;
379 [label="gini = 0.0\nsamples = 1\nvalue = [0, 0, 0, 1, 0, 0]"] ;
378 -> 379 ;
380 [label="gini = 0.0\nsamples = 1\nvalue = [0, 0, 0, 0, 1, 0]"] ;
378 -> 380 ;
381 [label="X[0] <= 10.8\ngini = 0.117\nsamples = 12\nvalue = [0, 0, 0, 15, 1, 0]"] ;
377 -> 381 ;
382 [label="gini = 0.0\nsamples = 7\nvalue = [0, 0, 0, 10, 0, 0]"] ;
381 -> 382 ;
383 [label="X[6] <= 37.5\ngini = 0.278\nsamples = 5\nvalue = [0, 0, 0, 5, 1, 0]"] ;
381 -> 383 ;
384 [label="X[5] <= 8.5\ngini = 0.5\nsamples = 2\nvalue = [0, 0, 0, 1, 1, 0]"] ;
383 -> 384 ;
385 [label="gini = 0.0\nsamples = 1\nvalue = [0, 0, 0, 1, 0, 0]"] ;
384 -> 385 ;
386 [label="gini = 0.0\nsamples = 1\nvalue = [0, 0, 0, 0, 1, 0]"] ;
384 -> 386 ;
387 [label="gini = 0.0\nsamples = 3\nvalue = [0, 0, 0, 4, 0, 0]"] ;
383 -> 387 ;
388 [label="X[3] <= 2.5\ngini = 0.48\nsamples = 4\nvalue = [0, 0, 2, 3, 0, 0]"] ;
376 -> 388 ;
389 [label="gini = 0.0\nsamples = 2\nvalue = [0, 0, 0, 3, 0, 0]"] ;
388 -> 389 ;
390 [label="gini = 0.0\nsamples = 2\nvalue = [0, 0, 2, 0, 0, 0]"] ;
388 -> 390 ;
391 [label="gini = 0.0\nsamples = 1\nvalue = [0, 0, 1, 0, 0, 0]"] ;
375 -> 391 ;
392 [label="X[1] <= 0.565\ngini = 0.444\nsamples = 4\nvalue = [0, 0, 0, 2, 4, 0]"] ;
374 -> 392 ;
393 [label="gini = 0.0\nsamples = 3\nvalue = [0, 0, 0, 0, 4, 0]"] ;
392 -> 393 ;
394 [label="gini = 0.0\nsamples = 1\nvalue = [0, 0, 0, 2, 0, 0]"] ;
392 -> 394 ;
395 [label="gini = 0.0\nsamples = 2\nvalue = [0, 0, 0, 0, 3, 0]"] ;
361 -> 395 ;
396 [label="X[6] <= 53.5\ngini = 0.239\nsamples = 22\nvalue = [0, 0, 5, 31, 0, 0]"] ;
360 -> 396 ;
397 [label="gini = 0.0\nsamples = 16\nvalue = [0, 0, 0, 27, 0, 0]"] ;
396 -> 397 ;
398 [label="X[9] <= 0.755\ngini = 0.494\nsamples = 6\nvalue = [0, 0, 5, 4, 0, 0]"] ;
396 -> 398 ;
399 [label="gini = 0.0\nsamples = 2\nvalue = [0, 0, 4, 0, 0, 0]"] ;
398 -> 399 ;
400 [label="X[10] <= 10.25\ngini = 0.32\nsamples = 4\nvalue = [0, 0, 1, 4, 0, 0]"] ;
398 -> 400 ;
401 [label="gini = 0.0\nsamples = 1\nvalue = [0, 0, 1, 0, 0, 0]"] ;
400 -> 401 ;
402 [label="gini = 0.0\nsamples = 3\nvalue = [0, 0, 0, 4, 0, 0]"] ;
400 -> 402 ;
403 [label="X[10] <= 9.65\ngini = 0.605\nsamples = 25\nvalue = [2, 1, 23, 16, 3, 0]"] ;
359 -> 403 ;
404 [label="X[9] <= 0.885\ngini = 0.375\nsamples = 12\nvalue = [0, 0, 18, 6, 0, 0]"] ;
403 -> 404 ;
405 [label="gini = 0.0\nsamples = 4\nvalue = [0, 0, 11, 0, 0, 0]"] ;
404 -> 405 ;
406 [label="X[4] <= 0.132\ngini = 0.497\nsamples = 8\nvalue = [0, 0, 7, 6, 0, 0]"] ;
404 -> 406 ;
407 [label="gini = 0.0\nsamples = 3\nvalue = [0, 0, 5, 0, 0, 0]"] ;
406 -> 407 ;
408 [label="X[4] <= 0.418\ngini = 0.375\nsamples = 5\nvalue = [0, 0, 2, 6, 0, 0]"] ;
406 -> 408 ;
409 [label="X[9] <= 0.98\ngini = 0.245\nsamples = 4\nvalue = [0, 0, 1, 6, 0, 0]"] ;
408 -> 409 ;
410 [label="gini = 0.0\nsamples = 1\nvalue = [0, 0, 0, 4, 0, 0]"] ;
409 -> 410 ;
411 [label="X[2] <= 0.49\ngini = 0.444\nsamples = 3\nvalue = [0, 0, 1, 2, 0, 0]"] ;
409 -> 411 ;
412 [label="gini = 0.0\nsamples = 1\nvalue = [0, 0, 1, 0, 0, 0]"] ;
411 -> 412 ;
413 [label="gini = 0.0\nsamples = 2\nvalue = [0, 0, 0, 2, 0, 0]"] ;
411 -> 413 ;
414 [label="gini = 0.0\nsamples = 1\nvalue = [0, 0, 1, 0, 0, 0]"] ;
408 -> 414 ;
415 [label="X[2] <= 0.595\ngini = 0.685\nsamples = 13\nvalue = [2, 1, 5, 10, 3, 0]"] ;
403 -> 415 ;
416 [label="X[1] <= 0.535\ngini = 0.599\nsamples = 11\nvalue = [2, 1, 5, 10, 0, 0]"] ;
415 -> 416 ;
417 [label="X[0] <= 11.25\ngini = 0.516\nsamples = 10\nvalue = [2, 1, 2, 10, 0, 0]"] ;
416 -> 417 ;
418 [label="X[8] <= 3.375\ngini = 0.449\nsamples = 9\nvalue = [2, 0, 2, 10, 0, 0]"] ;
417 -> 418 ;
419 [label="X[2] <= 0.37\ngini = 0.278\nsamples = 8\nvalue = [0, 0, 2, 10, 0, 0]"] ;
418 -> 419 ;
420 [label="X[5] <= 19.5\ngini = 0.5\nsamples = 3\nvalue = [0, 0, 2, 2, 0, 0]"] ;
419 -> 420 ;
421 [label="gini = 0.0\nsamples = 2\nvalue = [0, 0, 2, 0, 0, 0]"] ;
420 -> 421 ;
422 [label="gini = 0.0\nsamples = 1\nvalue = [0, 0, 0, 2, 0, 0]"] ;
420 -> 422 ;
423 [label="gini = 0.0\nsamples = 5\nvalue = [0, 0, 0, 8, 0, 0]"] ;
419 -> 423 ;
424 [label="gini = 0.0\nsamples = 1\nvalue = [2, 0, 0, 0, 0, 0]"] ;
418 -> 424 ;
425 [label="gini = 0.0\nsamples = 1\nvalue = [0, 1, 0, 0, 0, 0]"] ;
417 -> 425 ;
426 [label="gini = 0.0\nsamples = 1\nvalue = [0, 0, 3, 0, 0, 0]"] ;
416 -> 426 ;
427 [label="gini = 0.0\nsamples = 2\nvalue = [0, 0, 0, 0, 3, 0]"] ;
415 -> 427 ;
428 [label="X[9] <= 0.83\ngini = 0.564\nsamples = 13\nvalue = [0, 0, 2, 1, 16, 9]"] ;
358 -> 428 ;
429 [label="X[2] <= 0.36\ngini = 0.578\nsamples = 9\nvalue = [0, 0, 2, 1, 3, 9]"] ;
428 -> 429 ;
430 [label="X[2] <= 0.085\ngini = 0.18\nsamples = 5\nvalue = [0, 0, 0, 0, 1, 9]"] ;
429 -> 430 ;
431 [label="X[7] <= 0.992\ngini = 0.444\nsamples = 2\nvalue = [0, 0, 0, 0, 1, 2]"] ;
430 -> 431 ;
432 [label="gini = 0.0\nsamples = 1\nvalue = [0, 0, 0, 0, 0, 2]"] ;
431 -> 432 ;
433 [label="gini = 0.0\nsamples = 1\nvalue = [0, 0, 0, 0, 1, 0]"] ;
431 -> 433 ;
434 [label="gini = 0.0\nsamples = 3\nvalue = [0, 0, 0, 0, 0, 7]"] ;
430 -> 434 ;
435 [label="X[4] <= 0.096\ngini = 0.64\nsamples = 4\nvalue = [0, 0, 2, 1, 2, 0]"] ;
429 -> 435 ;
436 [label="X[6] <= 22.0\ngini = 0.444\nsamples = 3\nvalue = [0, 0, 0, 1, 2, 0]"] ;
435 -> 436 ;
437 [label="gini = 0.0\nsamples = 1\nvalue = [0, 0, 0, 1, 0, 0]"] ;
436 -> 437 ;
438 [label="gini = 0.0\nsamples = 2\nvalue = [0, 0, 0, 0, 2, 0]"] ;
436 -> 438 ;
439 [label="gini = 0.0\nsamples = 1\nvalue = [0, 0, 2, 0, 0, 0]"] ;
435 -> 439 ;
440 [label="gini = 0.0\nsamples = 4\nvalue = [0, 0, 0, 0, 13, 0]"] ;
428 -> 440 ;
441 [label="X[7] <= 0.996\ngini = 0.565\nsamples = 133\nvalue = [0, 8, 97, 84, 5, 1]"] ;
203 -> 441 ;
442 [label="X[9] <= 0.625\ngini = 0.473\nsamples = 40\nvalue = [0, 2, 16, 42, 1, 1]"] ;
441 -> 442 ;
443 [label="X[5] <= 12.5\ngini = 0.56\nsamples = 23\nvalue = [0, 2, 14, 14, 0, 0]"] ;
442 -> 443 ;
444 [label="X[10] <= 11.1\ngini = 0.43\nsamples = 8\nvalue = [0, 2, 8, 1, 0, 0]"] ;
443 -> 444 ;
445 [label="X[8] <= 3.475\ngini = 0.219\nsamples = 5\nvalue = [0, 0, 7, 1, 0, 0]"] ;
444 -> 445 ;
446 [label="gini = 0.0\nsamples = 4\nvalue = [0, 0, 7, 0, 0, 0]"] ;
445 -> 446 ;
447 [label="gini = 0.0\nsamples = 1\nvalue = [0, 0, 0, 1, 0, 0]"] ;
445 -> 447 ;
448 [label="X[0] <= 6.05\ngini = 0.444\nsamples = 3\nvalue = [0, 2, 1, 0, 0, 0]"] ;
444 -> 448 ;
449 [label="gini = 0.0\nsamples = 1\nvalue = [0, 0, 1, 0, 0, 0]"] ;
448 -> 449 ;
450 [label="gini = 0.0\nsamples = 2\nvalue = [0, 2, 0, 0, 0, 0]"] ;
448 -> 450 ;
451 [label="X[9] <= 0.595\ngini = 0.432\nsamples = 15\nvalue = [0, 0, 6, 13, 0, 0]"] ;
443 -> 451 ;
452 [label="gini = 0.0\nsamples = 7\nvalue = [0, 0, 0, 8, 0, 0]"] ;
451 -> 452 ;
453 [label="X[6] <= 56.5\ngini = 0.496\nsamples = 8\nvalue = [0, 0, 6, 5, 0, 0]"] ;
451 -> 453 ;
454 [label="gini = 0.0\nsamples = 4\nvalue = [0, 0, 0, 4, 0, 0]"] ;
453 -> 454 ;
455 [label="X[3] <= 1.8\ngini = 0.245\nsamples = 4\nvalue = [0, 0, 6, 1, 0, 0]"] ;
453 -> 455 ;
456 [label="gini = 0.0\nsamples = 3\nvalue = [0, 0, 6, 0, 0, 0]"] ;
455 -> 456 ;
457 [label="gini = 0.0\nsamples = 1\nvalue = [0, 0, 0, 1, 0, 0]"] ;
455 -> 457 ;
458 [label="X[10] <= 12.35\ngini = 0.229\nsamples = 17\nvalue = [0, 0, 2, 28, 1, 1]"] ;
442 -> 458 ;
459 [label="X[6] <= 89.0\ngini = 0.179\nsamples = 16\nvalue = [0, 0, 2, 28, 1, 0]"] ;
458 -> 459 ;
460 [label="X[10] <= 11.6\ngini = 0.067\nsamples = 14\nvalue = [0, 0, 0, 28, 1, 0]"] ;
459 -> 460 ;
461 [label="gini = 0.0\nsamples = 11\nvalue = [0, 0, 0, 23, 0, 0]"] ;
460 -> 461 ;
462 [label="X[9] <= 0.725\ngini = 0.278\nsamples = 3\nvalue = [0, 0, 0, 5, 1, 0]"] ;
460 -> 462 ;
463 [label="gini = 0.0\nsamples = 1\nvalue = [0, 0, 0, 0, 1, 0]"] ;
462 -> 463 ;
464 [label="gini = 0.0\nsamples = 2\nvalue = [0, 0, 0, 5, 0, 0]"] ;
462 -> 464 ;
465 [label="gini = 0.0\nsamples = 2\nvalue = [0, 0, 2, 0, 0, 0]"] ;
459 -> 465 ;
466 [label="gini = 0.0\nsamples = 1\nvalue = [0, 0, 0, 0, 0, 1]"] ;
458 -> 466 ;
467 [label="X[10] <= 10.35\ngini = 0.526\nsamples = 93\nvalue = [0, 6, 81, 42, 4, 0]"] ;
441 -> 467 ;
468 [label="X[7] <= 1.0\ngini = 0.445\nsamples = 72\nvalue = [0, 2, 73, 32, 0, 0]"] ;
467 -> 468 ;
469 [label="X[6] <= 17.0\ngini = 0.423\nsamples = 70\nvalue = [0, 2, 73, 28, 0, 0]"] ;
468 -> 469 ;
470 [label="X[9] <= 0.585\ngini = 0.494\nsamples = 7\nvalue = [0, 1, 2, 6, 0, 0]"] ;
469 -> 470 ;
471 [label="gini = 0.0\nsamples = 2\nvalue = [0, 0, 2, 0, 0, 0]"] ;
470 -> 471 ;
472 [label="X[1] <= 0.743\ngini = 0.245\nsamples = 5\nvalue = [0, 1, 0, 6, 0, 0]"] ;
470 -> 472 ;
473 [label="gini = 0.0\nsamples = 4\nvalue = [0, 0, 0, 6, 0, 0]"] ;
472 -> 473 ;
474 [label="gini = 0.0\nsamples = 1\nvalue = [0, 1, 0, 0, 0, 0]"] ;
472 -> 474 ;
475 [label="X[8] <= 2.945\ngini = 0.375\nsamples = 63\nvalue = [0, 1, 71, 22, 0, 0]"] ;
469 -> 475 ;
476 [label="gini = 0.0\nsamples = 1\nvalue = [0, 0, 0, 2, 0, 0]"] ;
475 -> 476 ;
477 [label="X[3] <= 4.0\ngini = 0.357\nsamples = 62\nvalue = [0, 1, 71, 20, 0, 0]"] ;
475 -> 477 ;
478 [label="X[4] <= 0.098\ngini = 0.338\nsamples = 61\nvalue = [0, 1, 71, 18, 0, 0]"] ;
477 -> 478 ;
479 [label="X[2] <= 0.265\ngini = 0.395\nsamples = 47\nvalue = [0, 1, 53, 18, 0, 0]"] ;
478 -> 479 ;
480 [label="X[4] <= 0.095\ngini = 0.354\nsamples = 43\nvalue = [0, 1, 52, 14, 0, 0]"] ;
479 -> 480 ;
481 [label="X[0] <= 7.65\ngini = 0.297\nsamples = 39\nvalue = [0, 1, 51, 10, 0, 0]"] ;
480 -> 481 ;
482 [label="X[3] <= 2.05\ngini = 0.44\nsamples = 23\nvalue = [0, 1, 25, 10, 0, 0]"] ;
481 -> 482 ;
483 [label="X[8] <= 3.26\ngini = 0.278\nsamples = 16\nvalue = [0, 1, 21, 3, 0, 0]"] ;
482 -> 483 ;
484 [label="gini = 0.0\nsamples = 1\nvalue = [0, 1, 0, 0, 0, 0]"] ;
483 -> 484 ;
485 [label="X[2] <= 0.07\ngini = 0.219\nsamples = 15\nvalue = [0, 0, 21, 3, 0, 0]"] ;
483 -> 485 ;
486 [label="gini = 0.0\nsamples = 7\nvalue = [0, 0, 14, 0, 0, 0]"] ;
485 -> 486 ;
487 [label="X[3] <= 1.85\ngini = 0.42\nsamples = 8\nvalue = [0, 0, 7, 3, 0, 0]"] ;
485 -> 487 ;
488 [label="X[9] <= 0.68\ngini = 0.219\nsamples = 6\nvalue = [0, 0, 7, 1, 0, 0]"] ;
487 -> 488 ;
489 [label="gini = 0.0\nsamples = 5\nvalue = [0, 0, 7, 0, 0, 0]"] ;
488 -> 489 ;
490 [label="gini = 0.0\nsamples = 1\nvalue = [0, 0, 0, 1, 0, 0]"] ;
488 -> 490 ;
491 [label="gini = 0.0\nsamples = 2\nvalue = [0, 0, 0, 2, 0, 0]"] ;
487 -> 491 ;
492 [label="X[7] <= 0.997\ngini = 0.463\nsamples = 7\nvalue = [0, 0, 4, 7, 0, 0]"] ;
482 -> 492 ;
493 [label="gini = 0.0\nsamples = 3\nvalue = [0, 0, 4, 0, 0, 0]"] ;
492 -> 493 ;
494 [label="gini = 0.0\nsamples = 4\nvalue = [0, 0, 0, 7, 0, 0]"] ;
492 -> 494 ;
495 [label="gini = 0.0\nsamples = 16\nvalue = [0, 0, 26, 0, 0, 0]"] ;
481 -> 495 ;
496 [label="X[0] <= 9.15\ngini = 0.32\nsamples = 4\nvalue = [0, 0, 1, 4, 0, 0]"] ;
480 -> 496 ;
497 [label="gini = 0.0\nsamples = 3\nvalue = [0, 0, 0, 4, 0, 0]"] ;
496 -> 497 ;
498 [label="gini = 0.0\nsamples = 1\nvalue = [0, 0, 1, 0, 0, 0]"] ;
496 -> 498 ;
499 [label="X[8] <= 3.07\ngini = 0.32\nsamples = 4\nvalue = [0, 0, 1, 4, 0, 0]"] ;
479 -> 499 ;
500 [label="gini = 0.0\nsamples = 1\nvalue = [0, 0, 1, 0, 0, 0]"] ;
499 -> 500 ;
501 [label="gini = 0.0\nsamples = 3\nvalue = [0, 0, 0, 4, 0, 0]"] ;
499 -> 501 ;
502 [label="gini = 0.0\nsamples = 14\nvalue = [0, 0, 18, 0, 0, 0]"] ;
478 -> 502 ;
503 [label="gini = 0.0\nsamples = 1\nvalue = [0, 0, 0, 2, 0, 0]"] ;
477 -> 503 ;
504 [label="gini = 0.0\nsamples = 2\nvalue = [0, 0, 0, 4, 0, 0]"] ;
468 -> 504 ;
505 [label="X[10] <= 11.1\ngini = 0.71\nsamples = 21\nvalue = [0, 4, 8, 10, 4, 0]"] ;
467 -> 505 ;
506 [label="X[9] <= 0.61\ngini = 0.653\nsamples = 18\nvalue = [0, 4, 6, 10, 1, 0]"] ;
505 -> 506 ;
507 [label="X[7] <= 0.996\ngini = 0.593\nsamples = 8\nvalue = [0, 4, 1, 4, 0, 0]"] ;
506 -> 507 ;
508 [label="gini = 0.0\nsamples = 1\nvalue = [0, 0, 1, 0, 0, 0]"] ;
507 -> 508 ;
509 [label="X[3] <= 1.65\ngini = 0.5\nsamples = 7\nvalue = [0, 4, 0, 4, 0, 0]"] ;
507 -> 509 ;
510 [label="gini = 0.0\nsamples = 1\nvalue = [0, 2, 0, 0, 0, 0]"] ;
509 -> 510 ;
511 [label="X[3] <= 3.6\ngini = 0.444\nsamples = 6\nvalue = [0, 2, 0, 4, 0, 0]"] ;
509 -> 511 ;
512 [label="X[1] <= 0.947\ngini = 0.32\nsamples = 5\nvalue = [0, 1, 0, 4, 0, 0]"] ;
511 -> 512 ;
513 [label="gini = 0.0\nsamples = 4\nvalue = [0, 0, 0, 4, 0, 0]"] ;
512 -> 513 ;
514 [label="gini = 0.0\nsamples = 1\nvalue = [0, 1, 0, 0, 0, 0]"] ;
512 -> 514 ;
515 [label="gini = 0.0\nsamples = 1\nvalue = [0, 1, 0, 0, 0, 0]"] ;
511 -> 515 ;
516 [label="X[0] <= 9.25\ngini = 0.569\nsamples = 10\nvalue = [0, 0, 5, 6, 1, 0]"] ;
506 -> 516 ;
517 [label="X[7] <= 0.997\ngini = 0.568\nsamples = 7\nvalue = [0, 0, 5, 3, 1, 0]"] ;
516 -> 517 ;
518 [label="X[5] <= 12.0\ngini = 0.611\nsamples = 5\nvalue = [0, 0, 2, 3, 1, 0]"] ;
517 -> 518 ;
519 [label="gini = 0.0\nsamples = 2\nvalue = [0, 0, 0, 3, 0, 0]"] ;
518 -> 519 ;
520 [label="X[5] <= 21.5\ngini = 0.444\nsamples = 3\nvalue = [0, 0, 2, 0, 1, 0]"] ;
518 -> 520 ;
521 [label="gini = 0.0\nsamples = 1\nvalue = [0, 0, 0, 0, 1, 0]"] ;
520 -> 521 ;
522 [label="gini = 0.0\nsamples = 2\nvalue = [0, 0, 2, 0, 0, 0]"] ;
520 -> 522 ;
523 [label="gini = 0.0\nsamples = 2\nvalue = [0, 0, 3, 0, 0, 0]"] ;
517 -> 523 ;
524 [label="gini = 0.0\nsamples = 3\nvalue = [0, 0, 0, 3, 0, 0]"] ;
516 -> 524 ;
525 [label="X[8] <= 3.16\ngini = 0.48\nsamples = 3\nvalue = [0, 0, 2, 0, 3, 0]"] ;
505 -> 525 ;
526 [label="gini = 0.0\nsamples = 1\nvalue = [0, 0, 0, 0, 3, 0]"] ;
525 -> 526 ;
527 [label="gini = 0.0\nsamples = 2\nvalue = [0, 0, 2, 0, 0, 0]"] ;
525 -> 527 ;
528 [label="X[3] <= 8.45\ngini = 0.502\nsamples = 25\nvalue = [0, 3, 27, 7, 3, 0]"] ;
202 -> 528 ;
529 [label="X[9] <= 0.57\ngini = 0.387\nsamples = 21\nvalue = [0, 3, 27, 2, 3, 0]"] ;
528 -> 529 ;
530 [label="gini = 0.0\nsamples = 1\nvalue = [0, 3, 0, 0, 0, 0]"] ;
529 -> 530 ;
531 [label="X[3] <= 6.575\ngini = 0.275\nsamples = 20\nvalue = [0, 0, 27, 2, 3, 0]"] ;
529 -> 531 ;
532 [label="X[7] <= 0.999\ngini = 0.363\nsamples = 15\nvalue = [0, 0, 18, 2, 3, 0]"] ;
531 -> 532 ;
533 [label="gini = 0.0\nsamples = 9\nvalue = [0, 0, 16, 0, 0, 0]"] ;
532 -> 533 ;
534 [label="X[2] <= 0.735\ngini = 0.653\nsamples = 6\nvalue = [0, 0, 2, 2, 3, 0]"] ;
532 -> 534 ;
535 [label="X[6] <= 29.5\ngini = 0.48\nsamples = 5\nvalue = [0, 0, 0, 2, 3, 0]"] ;
534 -> 535 ;
536 [label="gini = 0.0\nsamples = 1\nvalue = [0, 0, 0, 1, 0, 0]"] ;
535 -> 536 ;
537 [label="X[4] <= 0.098\ngini = 0.375\nsamples = 4\nvalue = [0, 0, 0, 1, 3, 0]"] ;
535 -> 537 ;
538 [label="gini = 0.0\nsamples = 3\nvalue = [0, 0, 0, 0, 3, 0]"] ;
537 -> 538 ;
539 [label="gini = 0.0\nsamples = 1\nvalue = [0, 0, 0, 1, 0, 0]"] ;
537 -> 539 ;
540 [label="gini = 0.0\nsamples = 1\nvalue = [0, 0, 2, 0, 0, 0]"] ;
534 -> 540 ;
541 [label="gini = 0.0\nsamples = 5\nvalue = [0, 0, 9, 0, 0, 0]"] ;
531 -> 541 ;
542 [label="gini = 0.0\nsamples = 4\nvalue = [0, 0, 0, 5, 0, 0]"] ;
528 -> 542 ;
}