digraph Tree {
node [shape=box, fontname="helvetica"] ;
edge [fontname="helvetica"] ;
0 [label="X[9] <= 0.545\ngini = 0.639\nsamples = 716\nvalue = [7, 38, 481, 452, 122, 19]"] ;
1 [label="X[7] <= 0.995\ngini = 0.515\nsamples = 169\nvalue = [4, 16, 180, 69, 9, 0]"] ;
0 -> 1 [labeldistance=2.5, labelangle=45, headlabel="True"] ;
2 [label="X[2] <= 0.275\ngini = 0.72\nsamples = 36\nvalue = [4, 7, 17, 25, 8, 0]"] ;
1 -> 2 ;
3 [label="X[7] <= 0.993\ngini = 0.689\nsamples = 24\nvalue = [4, 7, 17, 12, 0, 0]"] ;
2 -> 3 ;
4 [label="gini = 0.0\nsamples = 3\nvalue = [0, 0, 0, 6, 0, 0]"] ;
3 -> 4 ;
5 [label="X[7] <= 0.995\ngini = 0.663\nsamples = 21\nvalue = [4, 7, 17, 6, 0, 0]"] ;
3 -> 5 ;
6 [label="X[1] <= 0.837\ngini = 0.417\nsamples = 14\nvalue = [0, 5, 16, 1, 0, 0]"] ;
5 -> 6 ;
7 [label="X[6] <= 10.0\ngini = 0.198\nsamples = 11\nvalue = [0, 2, 16, 0, 0, 0]"] ;
6 -> 7 ;
8 [label="gini = 0.0\nsamples = 1\nvalue = [0, 2, 0, 0, 0, 0]"] ;
7 -> 8 ;
9 [label="gini = 0.0\nsamples = 10\nvalue = [0, 0, 16, 0, 0, 0]"] ;
7 -> 9 ;
10 [label="X[7] <= 0.994\ngini = 0.375\nsamples = 3\nvalue = [0, 3, 0, 1, 0, 0]"] ;
6 -> 10 ;
11 [label="gini = 0.0\nsamples = 1\nvalue = [0, 0, 0, 1, 0, 0]"] ;
10 -> 11 ;
12 [label="gini = 0.0\nsamples = 2\nvalue = [0, 3, 0, 0, 0, 0]"] ;
10 -> 12 ;
13 [label="X[1] <= 0.743\ngini = 0.681\nsamples = 7\nvalue = [4, 2, 1, 5, 0, 0]"] ;
5 -> 13 ;
14 [label="X[2] <= 0.23\ngini = 0.278\nsamples = 4\nvalue = [0, 0, 1, 5, 0, 0]"] ;
13 -> 14 ;
15 [label="gini = 0.0\nsamples = 3\nvalue = [0, 0, 0, 5, 0, 0]"] ;
14 -> 15 ;
16 [label="gini = 0.0\nsamples = 1\nvalue = [0, 0, 1, 0, 0, 0]"] ;
14 -> 16 ;
17 [label="X[10] <= 11.15\ngini = 0.444\nsamples = 3\nvalue = [4, 2, 0, 0, 0, 0]"] ;
13 -> 17 ;
18 [label="gini = 0.0\nsamples = 2\nvalue = [4, 0, 0, 0, 0, 0]"] ;
17 -> 18 ;
19 [label="gini = 0.0\nsamples = 1\nvalue = [0, 2, 0, 0, 0, 0]"] ;
17 -> 19 ;
20 [label="X[3] <= 2.8\ngini = 0.472\nsamples = 12\nvalue = [0, 0, 0, 13, 8, 0]"] ;
2 -> 20 ;
21 [label="X[5] <= 5.5\ngini = 0.133\nsamples = 10\nvalue = [0, 0, 0, 13, 1, 0]"] ;
20 -> 21 ;
22 [label="X[2] <= 0.46\ngini = 0.5\nsamples = 2\nvalue = [0, 0, 0, 1, 1, 0]"] ;
21 -> 22 ;
23 [label="gini = 0.0\nsamples = 1\nvalue = [0, 0, 0, 0, 1, 0]"] ;
22 -> 23 ;
24 [label="gini = 0.0\nsamples = 1\nvalue = [0, 0, 0, 1, 0, 0]"] ;
22 -> 24 ;
25 [label="gini = 0.0\nsamples = 8\nvalue = [0, 0, 0, 12, 0, 0]"] ;
21 -> 25 ;
26 [label="gini = 0.0\nsamples = 2\nvalue = [0, 0, 0, 0, 7, 0]"] ;
20 -> 26 ;
27 [label="X[4] <= 0.076\ngini = 0.393\nsamples = 133\nvalue = [0, 9, 163, 44, 1, 0]"] ;
1 -> 27 ;
28 [label="X[4] <= 0.071\ngini = 0.51\nsamples = 31\nvalue = [0, 1, 31, 19, 1, 0]"] ;
27 -> 28 ;
29 [label="X[9] <= 0.435\ngini = 0.278\nsamples = 14\nvalue = [0, 0, 20, 4, 0, 0]"] ;
28 -> 29 ;
30 [label="gini = 0.0\nsamples = 1\nvalue = [0, 0, 0, 1, 0, 0]"] ;
29 -> 30 ;
31 [label="X[6] <= 140.5\ngini = 0.227\nsamples = 13\nvalue = [0, 0, 20, 3, 0, 0]"] ;
29 -> 31 ;
32 [label="X[9] <= 0.51\ngini = 0.091\nsamples = 12\nvalue = [0, 0, 20, 1, 0, 0]"] ;
31 -> 32 ;
33 [label="gini = 0.0\nsamples = 6\nvalue = [0, 0, 12, 0, 0, 0]"] ;
32 -> 33 ;
34 [label="X[6] <= 34.5\ngini = 0.198\nsamples = 6\nvalue = [0, 0, 8, 1, 0, 0]"] ;
32 -> 34 ;
35 [label="X[6] <= 23.0\ngini = 0.375\nsamples = 3\nvalue = [0, 0, 3, 1, 0, 0]"] ;
34 -> 35 ;
36 [label="gini = 0.0\nsamples = 2\nvalue = [0, 0, 3, 0, 0, 0]"] ;
35 -> 36 ;
37 [label="gini = 0.0\nsamples = 1\nvalue = [0, 0, 0, 1, 0, 0]"] ;
35 -> 37 ;
38 [label="gini = 0.0\nsamples = 3\nvalue = [0, 0, 5, 0, 0, 0]"] ;
34 -> 38 ;
39 [label="gini = 0.0\nsamples = 1\nvalue = [0, 0, 0, 2, 0, 0]"] ;
31 -> 39 ;
40 [label="X[9] <= 0.535\ngini = 0.556\nsamples = 17\nvalue = [0, 1, 11, 15, 1, 0]"] ;
28 -> 40 ;
41 [label="X[7] <= 0.999\ngini = 0.57\nsamples = 13\nvalue = [0, 1, 11, 7, 1, 0]"] ;
40 -> 41 ;
42 [label="X[0] <= 8.5\ngini = 0.519\nsamples = 12\nvalue = [0, 1, 11, 4, 1, 0]"] ;
41 -> 42 ;
43 [label="X[7] <= 0.995\ngini = 0.26\nsamples = 9\nvalue = [0, 0, 11, 2, 0, 0]"] ;
42 -> 43 ;
44 [label="gini = 0.0\nsamples = 1\nvalue = [0, 0, 0, 2, 0, 0]"] ;
43 -> 44 ;
45 [label="gini = 0.0\nsamples = 8\nvalue = [0, 0, 11, 0, 0, 0]"] ;
43 -> 45 ;
46 [label="X[1] <= 0.352\ngini = 0.625\nsamples = 3\nvalue = [0, 1, 0, 2, 1, 0]"] ;
42 -> 46 ;
47 [label="gini = 0.0\nsamples = 1\nvalue = [0, 0, 0, 2, 0, 0]"] ;
46 -> 47 ;
48 [label="X[1] <= 0.682\ngini = 0.5\nsamples = 2\nvalue = [0, 1, 0, 0, 1, 0]"] ;
46 -> 48 ;
49 [label="gini = 0.0\nsamples = 1\nvalue = [0, 0, 0, 0, 1, 0]"] ;
48 -> 49 ;
50 [label="gini = 0.0\nsamples = 1\nvalue = [0, 1, 0, 0, 0, 0]"] ;
48 -> 50 ;
51 [label="gini = 0.0\nsamples = 1\nvalue = [0, 0, 0, 3, 0, 0]"] ;
41 -> 51 ;
52 [label="gini = 0.0\nsamples = 4\nvalue = [0, 0, 0, 8, 0, 0]"] ;
40 -> 52 ;
53 [label="X[1] <= 0.455\ngini = 0.335\nsamples = 102\nvalue = [0, 8, 132, 25, 0, 0]"] ;
27 -> 53 ;
54 [label="X[4] <= 0.082\ngini = 0.48\nsamples = 22\nvalue = [0, 0, 18, 12, 0, 0]"] ;
53 -> 54 ;
55 [label="X[7] <= 0.996\ngini = 0.48\nsamples = 10\nvalue = [0, 0, 6, 9, 0, 0]"] ;
54 -> 55 ;
56 [label="gini = 0.0\nsamples = 3\nvalue = [0, 0, 0, 6, 0, 0]"] ;
55 -> 56 ;
57 [label="X[0] <= 7.65\ngini = 0.444\nsamples = 7\nvalue = [0, 0, 6, 3, 0, 0]"] ;
55 -> 57 ;
58 [label="gini = 0.0\nsamples = 2\nvalue = [0, 0, 4, 0, 0, 0]"] ;
57 -> 58 ;
59 [label="X[9] <= 0.525\ngini = 0.48\nsamples = 5\nvalue = [0, 0, 2, 3, 0, 0]"] ;
57 -> 59 ;
60 [label="gini = 0.0\nsamples = 3\nvalue = [0, 0, 0, 3, 0, 0]"] ;
59 -> 60 ;
61 [label="gini = 0.0\nsamples = 2\nvalue = [0, 0, 2, 0, 0, 0]"] ;
59 -> 61 ;
62 [label="X[2] <= 0.645\ngini = 0.32\nsamples = 12\nvalue = [0, 0, 12, 3, 0, 0]"] ;
54 -> 62 ;
63 [label="X[3] <= 2.25\ngini = 0.142\nsamples = 10\nvalue = [0, 0, 12, 1, 0, 0]"] ;
62 -> 63 ;
64 [label="X[9] <= 0.495\ngini = 0.375\nsamples = 4\nvalue = [0, 0, 3, 1, 0, 0]"] ;
63 -> 64 ;
65 [label="gini = 0.0\nsamples = 1\nvalue = [0, 0, 0, 1, 0, 0]"] ;
64 -> 65 ;
66 [label="gini = 0.0\nsamples = 3\nvalue = [0, 0, 3, 0, 0, 0]"] ;
64 -> 66 ;
67 [label="gini = 0.0\nsamples = 6\nvalue = [0, 0, 9, 0, 0, 0]"] ;
63 -> 67 ;
68 [label="gini = 0.0\nsamples = 2\nvalue = [0, 0, 0, 2, 0, 0]"] ;
62 -> 68 ;
69 [label="X[0] <= 7.95\ngini = 0.274\nsamples = 80\nvalue = [0, 8, 114, 13, 0, 0]"] ;
53 -> 69 ;
70 [label="X[8] <= 3.57\ngini = 0.143\nsamples = 45\nvalue = [0, 2, 73, 4, 0, 0]"] ;
69 -> 70 ;
71 [label="X[3] <= 4.925\ngini = 0.098\nsamples = 44\nvalue = [0, 0, 73, 4, 0, 0]"] ;
70 -> 71 ;
72 [label="X[5] <= 22.5\ngini = 0.029\nsamples = 40\nvalue = [0, 0, 68, 1, 0, 0]"] ;
71 -> 72 ;
73 [label="gini = 0.0\nsamples = 30\nvalue = [0, 0, 56, 0, 0, 0]"] ;
72 -> 73 ;
74 [label="X[7] <= 0.997\ngini = 0.142\nsamples = 10\nvalue = [0, 0, 12, 1, 0, 0]"] ;
72 -> 74 ;
75 [label="gini = 0.0\nsamples = 8\nvalue = [0, 0, 11, 0, 0, 0]"] ;
74 -> 75 ;
76 [label="X[6] <= 69.5\ngini = 0.5\nsamples = 2\nvalue = [0, 0, 1, 1, 0, 0]"] ;
74 -> 76 ;
77 [label="gini = 0.0\nsamples = 1\nvalue = [0, 0, 1, 0, 0, 0]"] ;
76 -> 77 ;
78 [label="gini = 0.0\nsamples = 1\nvalue = [0, 0, 0, 1, 0, 0]"] ;
76 -> 78 ;
79 [label="X[3] <= 5.3\ngini = 0.469\nsamples = 4\nvalue = [0, 0, 5, 3, 0, 0]"] ;
71 -> 79 ;
80 [label="gini = 0.0\nsamples = 1\nvalue = [0, 0, 0, 3, 0, 0]"] ;
79 -> 80 ;
81 [label="gini = 0.0\nsamples = 3\nvalue = [0, 0, 5, 0, 0, 0]"] ;
79 -> 81 ;
82 [label="gini = 0.0\nsamples = 1\nvalue = [0, 2, 0, 0, 0, 0]"] ;
70 -> 82 ;
83 [label="X[10] <= 9.45\ngini = 0.427\nsamples = 35\nvalue = [0, 6, 41, 9, 0, 0]"] ;
69 -> 83 ;
84 [label="X[2] <= 0.295\ngini = 0.091\nsamples = 12\nvalue = [0, 1, 20, 0, 0, 0]"] ;
83 -> 84 ;
85 [label="gini = 0.0\nsamples = 7\nvalue = [0, 0, 16, 0, 0, 0]"] ;
84 -> 85 ;
86 [label="X[3] <= 2.5\ngini = 0.32\nsamples = 5\nvalue = [0, 1, 4, 0, 0, 0]"] ;
84 -> 86 ;
87 [label="gini = 0.0\nsamples = 4\nvalue = [0, 0, 4, 0, 0, 0]"] ;
86 -> 87 ;
88 [label="gini = 0.0\nsamples = 1\nvalue = [0, 1, 0, 0, 0, 0]"] ;
86 -> 88 ;
89 [label="X[2] <= 0.315\ngini = 0.553\nsamples = 23\nvalue = [0, 5, 21, 9, 0, 0]"] ;
83 -> 89 ;
90 [label="X[7] <= 0.997\ngini = 0.51\nsamples = 20\nvalue = [0, 5, 21, 6, 0, 0]"] ;
89 -> 90 ;
91 [label="X[1] <= 0.893\ngini = 0.165\nsamples = 6\nvalue = [0, 1, 10, 0, 0, 0]"] ;
90 -> 91 ;
92 [label="gini = 0.0\nsamples = 4\nvalue = [0, 0, 8, 0, 0, 0]"] ;
91 -> 92 ;
93 [label="X[1] <= 1.123\ngini = 0.444\nsamples = 2\nvalue = [0, 1, 2, 0, 0, 0]"] ;
91 -> 93 ;
94 [label="gini = 0.0\nsamples = 1\nvalue = [0, 1, 0, 0, 0, 0]"] ;
93 -> 94 ;
95 [label="gini = 0.0\nsamples = 1\nvalue = [0, 0, 2, 0, 0, 0]"] ;
93 -> 95 ;
96 [label="X[4] <= 0.094\ngini = 0.608\nsamples = 14\nvalue = [0, 4, 11, 6, 0, 0]"] ;
90 -> 96 ;
97 [label="X[3] <= 2.225\ngini = 0.658\nsamples = 11\nvalue = [0, 4, 5, 6, 0, 0]"] ;
96 -> 97 ;
98 [label="X[6] <= 28.0\ngini = 0.49\nsamples = 4\nvalue = [0, 3, 0, 4, 0, 0]"] ;
97 -> 98 ;
99 [label="gini = 0.0\nsamples = 2\nvalue = [0, 3, 0, 0, 0, 0]"] ;
98 -> 99 ;
100 [label="gini = 0.0\nsamples = 2\nvalue = [0, 0, 0, 4, 0, 0]"] ;
98 -> 100 ;
101 [label="X[9] <= 0.47\ngini = 0.531\nsamples = 7\nvalue = [0, 1, 5, 2, 0, 0]"] ;
97 -> 101 ;
102 [label="gini = 0.0\nsamples = 1\nvalue = [0, 1, 0, 0, 0, 0]"] ;
101 -> 102 ;
103 [label="X[3] <= 2.8\ngini = 0.408\nsamples = 6\nvalue = [0, 0, 5, 2, 0, 0]"] ;
101 -> 103 ;
104 [label="gini = 0.0\nsamples = 4\nvalue = [0, 0, 5, 0, 0, 0]"] ;
103 -> 104 ;
105 [label="gini = 0.0\nsamples = 2\nvalue = [0, 0, 0, 2, 0, 0]"] ;
103 -> 105 ;
106 [label="gini = 0.0\nsamples = 3\nvalue = [0, 0, 6, 0, 0, 0]"] ;
96 -> 106 ;
107 [label="gini = 0.0\nsamples = 3\nvalue = [0, 0, 0, 3, 0, 0]"] ;
89 -> 107 ;
108 [label="X[10] <= 10.55\ngini = 0.645\nsamples = 547\nvalue = [3, 22, 301, 383, 113, 19]"] ;
0 -> 108 [labeldistance=2.5, labelangle=-45, headlabel="False"] ;
109 [label="X[0] <= 9.95\ngini = 0.577\nsamples = 299\nvalue = [3, 5, 237, 175, 33, 3]"] ;
108 -> 109 ;
110 [label="X[1] <= 0.37\ngini = 0.538\nsamples = 238\nvalue = [1, 4, 214, 129, 21, 0]"] ;
109 -> 110 ;
111 [label="X[5] <= 10.0\ngini = 0.483\nsamples = 17\nvalue = [0, 0, 5, 17, 3, 0]"] ;
110 -> 111 ;
112 [label="gini = 0.0\nsamples = 2\nvalue = [0, 0, 4, 0, 0, 0]"] ;
111 -> 112 ;
113 [label="X[2] <= 0.28\ngini = 0.322\nsamples = 15\nvalue = [0, 0, 1, 17, 3, 0]"] ;
111 -> 113 ;
114 [label="X[1] <= 0.315\ngini = 0.5\nsamples = 2\nvalue = [0, 0, 1, 0, 1, 0]"] ;
113 -> 114 ;
115 [label="gini = 0.0\nsamples = 1\nvalue = [0, 0, 0, 0, 1, 0]"] ;
114 -> 115 ;
116 [label="gini = 0.0\nsamples = 1\nvalue = [0, 0, 1, 0, 0, 0]"] ;
114 -> 116 ;
117 [label="X[10] <= 10.45\ngini = 0.188\nsamples = 13\nvalue = [0, 0, 0, 17, 2, 0]"] ;
113 -> 117 ;
118 [label="X[1] <= 0.255\ngini = 0.105\nsamples = 12\nvalue = [0, 0, 0, 17, 1, 0]"] ;
117 -> 118 ;
119 [label="X[9] <= 0.88\ngini = 0.32\nsamples = 3\nvalue = [0, 0, 0, 4, 1, 0]"] ;
118 -> 119 ;
120 [label="gini = 0.0\nsamples = 1\nvalue = [0, 0, 0, 0, 1, 0]"] ;
119 -> 120 ;
121 [label="gini = 0.0\nsamples = 2\nvalue = [0, 0, 0, 4, 0, 0]"] ;
119 -> 121 ;
122 [label="gini = 0.0\nsamples = 9\nvalue = [0, 0, 0, 13, 0, 0]"] ;
118 -> 122 ;
123 [label="gini = 0.0\nsamples = 1\nvalue = [0, 0, 0, 0, 1, 0]"] ;
117 -> 123 ;
124 [label="X[4] <= 0.098\ngini = 0.522\nsamples = 221\nvalue = [1, 4, 209, 112, 18, 0]"] ;
110 -> 124 ;
125 [label="X[9] <= 0.805\ngini = 0.55\nsamples = 178\nvalue = [1, 3, 156, 98, 18, 0]"] ;
124 -> 125 ;
126 [label="X[2] <= 0.005\ngini = 0.53\nsamples = 167\nvalue = [1, 2, 155, 85, 16, 0]"] ;
125 -> 126 ;
127 [label="X[8] <= 3.475\ngini = 0.355\nsamples = 14\nvalue = [0, 1, 4, 18, 0, 0]"] ;
126 -> 127 ;
128 [label="X[6] <= 34.5\ngini = 0.1\nsamples = 10\nvalue = [0, 0, 1, 18, 0, 0]"] ;
127 -> 128 ;
129 [label="gini = 0.0\nsamples = 7\nvalue = [0, 0, 0, 15, 0, 0]"] ;
128 -> 129 ;
130 [label="X[8] <= 3.42\ngini = 0.375\nsamples = 3\nvalue = [0, 0, 1, 3, 0, 0]"] ;
128 -> 130 ;
131 [label="gini = 0.0\nsamples = 2\nvalue = [0, 0, 0, 3, 0, 0]"] ;
130 -> 131 ;
132 [label="gini = 0.0\nsamples = 1\nvalue = [0, 0, 1, 0, 0, 0]"] ;
130 -> 132 ;
133 [label="X[0] <= 6.5\ngini = 0.375\nsamples = 4\nvalue = [0, 1, 3, 0, 0, 0]"] ;
127 -> 133 ;
134 [label="gini = 0.0\nsamples = 1\nvalue = [0, 1, 0, 0, 0, 0]"] ;
133 -> 134 ;
135 [label="gini = 0.0\nsamples = 3\nvalue = [0, 0, 3, 0, 0, 0]"] ;
133 -> 135 ;
136 [label="X[6] <= 91.5\ngini = 0.505\nsamples = 153\nvalue = [1, 1, 151, 67, 16, 0]"] ;
126 -> 136 ;
137 [label="X[2] <= 0.43\ngini = 0.539\nsamples = 133\nvalue = [1, 1, 124, 67, 16, 0]"] ;
136 -> 137 ;
138 [label="X[4] <= 0.095\ngini = 0.554\nsamples = 124\nvalue = [1, 1, 112, 67, 16, 0]"] ;
137 -> 138 ;
139 [label="X[1] <= 0.605\ngini = 0.548\nsamples = 120\nvalue = [1, 1, 112, 62, 16, 0]"] ;
138 -> 139 ;
140 [label="X[5] <= 31.5\ngini = 0.621\nsamples = 63\nvalue = [0, 0, 44, 38, 16, 0]"] ;
139 -> 140 ;
141 [label="X[10] <= 9.45\ngini = 0.629\nsamples = 59\nvalue = [0, 0, 37, 38, 16, 0]"] ;
140 -> 141 ;
142 [label="X[8] <= 3.305\ngini = 0.198\nsamples = 12\nvalue = [0, 0, 16, 2, 0, 0]"] ;
141 -> 142 ;
143 [label="X[2] <= 0.255\ngini = 0.48\nsamples = 4\nvalue = [0, 0, 3, 2, 0, 0]"] ;
142 -> 143 ;
144 [label="gini = 0.0\nsamples = 2\nvalue = [0, 0, 0, 2, 0, 0]"] ;
143 -> 144 ;
145 [label="gini = 0.0\nsamples = 2\nvalue = [0, 0, 3, 0, 0, 0]"] ;
143 -> 145 ;
146 [label="gini = 0.0\nsamples = 8\nvalue = [0, 0, 13, 0, 0, 0]"] ;
142 -> 146 ;
147 [label="X[6] <= 20.0\ngini = 0.626\nsamples = 47\nvalue = [0, 0, 21, 36, 16, 0]"] ;
141 -> 147 ;
148 [label="X[7] <= 0.997\ngini = 0.49\nsamples = 4\nvalue = [0, 0, 3, 0, 4, 0]"] ;
147 -> 148 ;
149 [label="gini = 0.0\nsamples = 2\nvalue = [0, 0, 0, 0, 4, 0]"] ;
148 -> 149 ;
150 [label="gini = 0.0\nsamples = 2\nvalue = [0, 0, 3, 0, 0, 0]"] ;
148 -> 150 ;
151 [label="X[7] <= 0.999\ngini = 0.595\nsamples = 43\nvalue = [0, 0, 18, 36, 12, 0]"] ;
147 -> 151 ;
152 [label="X[4] <= 0.069\ngini = 0.551\nsamples = 40\nvalue = [0, 0, 18, 36, 7, 0]"] ;
151 -> 152 ;
153 [label="X[9] <= 0.645\ngini = 0.56\nsamples = 7\nvalue = [0, 0, 2, 2, 6, 0]"] ;
152 -> 153 ;
154 [label="X[1] <= 0.535\ngini = 0.444\nsamples = 3\nvalue = [0, 0, 2, 1, 0, 0]"] ;
153 -> 154 ;
155 [label="gini = 0.0\nsamples = 2\nvalue = [0, 0, 2, 0, 0, 0]"] ;
154 -> 155 ;
156 [label="gini = 0.0\nsamples = 1\nvalue = [0, 0, 0, 1, 0, 0]"] ;
154 -> 156 ;
157 [label="X[2] <= 0.145\ngini = 0.245\nsamples = 4\nvalue = [0, 0, 0, 1, 6, 0]"] ;
153 -> 157 ;
158 [label="gini = 0.0\nsamples = 1\nvalue = [0, 0, 0, 1, 0, 0]"] ;
157 -> 158 ;
159 [label="gini = 0.0\nsamples = 3\nvalue = [0, 0, 0, 0, 6, 0]"] ;
157 -> 159 ;
160 [label="X[5] <= 7.5\ngini = 0.457\nsamples = 33\nvalue = [0, 0, 16, 34, 1, 0]"] ;
152 -> 160 ;
161 [label="gini = 0.0\nsamples = 1\nvalue = [0, 0, 3, 0, 0, 0]"] ;
160 -> 161 ;
162 [label="X[2] <= 0.255\ngini = 0.424\nsamples = 32\nvalue = [0, 0, 13, 34, 1, 0]"] ;
160 -> 162 ;
163 [label="X[3] <= 1.95\ngini = 0.525\nsamples = 18\nvalue = [0, 0, 10, 14, 1, 0]"] ;
162 -> 163 ;
164 [label="X[0] <= 7.2\ngini = 0.32\nsamples = 4\nvalue = [0, 0, 0, 4, 1, 0]"] ;
163 -> 164 ;
165 [label="gini = 0.0\nsamples = 3\nvalue = [0, 0, 0, 4, 0, 0]"] ;
164 -> 165 ;
166 [label="gini = 0.0\nsamples = 1\nvalue = [0, 0, 0, 0, 1, 0]"] ;
164 -> 166 ;
167 [label="X[6] <= 47.5\ngini = 0.5\nsamples = 14\nvalue = [0, 0, 10, 10, 0, 0]"] ;
163 -> 167 ;
168 [label="X[3] <= 2.05\ngini = 0.375\nsamples = 9\nvalue = [0, 0, 3, 9, 0, 0]"] ;
167 -> 168 ;
169 [label="X[0] <= 6.35\ngini = 0.5\nsamples = 3\nvalue = [0, 0, 2, 2, 0, 0]"] ;
168 -> 169 ;
170 [label="gini = 0.0\nsamples = 1\nvalue = [0, 0, 0, 2, 0, 0]"] ;
169 -> 170 ;
171 [label="gini = 0.0\nsamples = 2\nvalue = [0, 0, 2, 0, 0, 0]"] ;
169 -> 171 ;
172 [label="X[9] <= 0.585\ngini = 0.219\nsamples = 6\nvalue = [0, 0, 1, 7, 0, 0]"] ;
168 -> 172 ;
173 [label="X[10] <= 9.75\ngini = 0.5\nsamples = 2\nvalue = [0, 0, 1, 1, 0, 0]"] ;
172 -> 173 ;
174 [label="gini = 0.0\nsamples = 1\nvalue = [0, 0, 0, 1, 0, 0]"] ;
173 -> 174 ;
175 [label="gini = 0.0\nsamples = 1\nvalue = [0, 0, 1, 0, 0, 0]"] ;
173 -> 175 ;
176 [label="gini = 0.0\nsamples = 4\nvalue = [0, 0, 0, 6, 0, 0]"] ;
172 -> 176 ;
177 [label="X[3] <= 2.5\ngini = 0.219\nsamples = 5\nvalue = [0, 0, 7, 1, 0, 0]"] ;
167 -> 177 ;
178 [label="gini = 0.0\nsamples = 3\nvalue = [0, 0, 5, 0, 0, 0]"] ;
177 -> 178 ;
179 [label="X[6] <= 55.5\ngini = 0.444\nsamples = 2\nvalue = [0, 0, 2, 1, 0, 0]"] ;
177 -> 179 ;
180 [label="gini = 0.0\nsamples = 1\nvalue = [0, 0, 2, 0, 0, 0]"] ;
179 -> 180 ;
181 [label="gini = 0.0\nsamples = 1\nvalue = [0, 0, 0, 1, 0, 0]"] ;
179 -> 181 ;
182 [label="X[2] <= 0.315\ngini = 0.227\nsamples = 14\nvalue = [0, 0, 3, 20, 0, 0]"] ;
162 -> 182 ;
183 [label="gini = 0.0\nsamples = 10\nvalue = [0, 0, 0, 17, 0, 0]"] ;
182 -> 183 ;
184 [label="X[6] <= 48.0\ngini = 0.5\nsamples = 4\nvalue = [0, 0, 3, 3, 0, 0]"] ;
182 -> 184 ;
185 [label="gini = 0.0\nsamples = 2\nvalue = [0, 0, 0, 3, 0, 0]"] ;
184 -> 185 ;
186 [label="gini = 0.0\nsamples = 2\nvalue = [0, 0, 3, 0, 0, 0]"] ;
184 -> 186 ;
187 [label="gini = 0.0\nsamples = 3\nvalue = [0, 0, 0, 0, 5, 0]"] ;
151 -> 187 ;
188 [label="gini = 0.0\nsamples = 4\nvalue = [0, 0, 7, 0, 0, 0]"] ;
140 -> 188 ;
189 [label="X[9] <= 0.555\ngini = 0.411\nsamples = 57\nvalue = [1, 1, 68, 24, 0, 0]"] ;
139 -> 189 ;
190 [label="X[8] <= 3.3\ngini = 0.486\nsamples = 7\nvalue = [1, 0, 3, 8, 0, 0]"] ;
189 -> 190 ;
191 [label="gini = 0.0\nsamples = 1\nvalue = [0, 0, 2, 0, 0, 0]"] ;
190 -> 191 ;
192 [label="X[6] <= 46.5\ngini = 0.34\nsamples = 6\nvalue = [1, 0, 1, 8, 0, 0]"] ;
190 -> 192 ;
193 [label="X[2] <= 0.165\ngini = 0.198\nsamples = 5\nvalue = [0, 0, 1, 8, 0, 0]"] ;
192 -> 193 ;
194 [label="gini = 0.0\nsamples = 4\nvalue = [0, 0, 0, 8, 0, 0]"] ;
193 -> 194 ;
195 [label="gini = 0.0\nsamples = 1\nvalue = [0, 0, 1, 0, 0, 0]"] ;
193 -> 195 ;
196 [label="gini = 0.0\nsamples = 1\nvalue = [1, 0, 0, 0, 0, 0]"] ;
192 -> 196 ;
197 [label="X[3] <= 2.65\ngini = 0.333\nsamples = 50\nvalue = [0, 1, 65, 16, 0, 0]"] ;
189 -> 197 ;
198 [label="X[5] <= 17.5\ngini = 0.266\nsamples = 43\nvalue = [0, 1, 60, 10, 0, 0]"] ;
197 -> 198 ;
199 [label="X[7] <= 0.996\ngini = 0.309\nsamples = 36\nvalue = [0, 1, 48, 10, 0, 0]"] ;
198 -> 199 ;
200 [label="X[8] <= 3.39\ngini = 0.444\nsamples = 5\nvalue = [0, 0, 2, 4, 0, 0]"] ;
199 -> 200 ;
201 [label="gini = 0.0\nsamples = 4\nvalue = [0, 0, 0, 4, 0, 0]"] ;
200 -> 201 ;
202 [label="gini = 0.0\nsamples = 1\nvalue = [0, 0, 2, 0, 0, 0]"] ;
200 -> 202 ;
203 [label="X[4] <= 0.09\ngini = 0.234\nsamples = 31\nvalue = [0, 1, 46, 6, 0, 0]"] ;
199 -> 203 ;
204 [label="X[1] <= 0.66\ngini = 0.089\nsamples = 24\nvalue = [0, 0, 41, 2, 0, 0]"] ;
203 -> 204 ;
205 [label="X[3] <= 1.85\ngini = 0.172\nsamples = 12\nvalue = [0, 0, 19, 2, 0, 0]"] ;
204 -> 205 ;
206 [label="gini = 0.0\nsamples = 5\nvalue = [0, 0, 10, 0, 0, 0]"] ;
205 -> 206 ;
207 [label="X[0] <= 7.2\ngini = 0.298\nsamples = 7\nvalue = [0, 0, 9, 2, 0, 0]"] ;
205 -> 207 ;
208 [label="gini = 0.0\nsamples = 2\nvalue = [0, 0, 0, 2, 0, 0]"] ;
207 -> 208 ;
209 [label="gini = 0.0\nsamples = 5\nvalue = [0, 0, 9, 0, 0, 0]"] ;
207 -> 209 ;
210 [label="gini = 0.0\nsamples = 12\nvalue = [0, 0, 22, 0, 0, 0]"] ;
204 -> 210 ;
211 [label="X[8] <= 3.47\ngini = 0.58\nsamples = 7\nvalue = [0, 1, 5, 4, 0, 0]"] ;
203 -> 211 ;
212 [label="X[0] <= 8.3\ngini = 0.5\nsamples = 5\nvalue = [0, 1, 1, 4, 0, 0]"] ;
211 -> 212 ;
213 [label="gini = 0.0\nsamples = 3\nvalue = [0, 0, 0, 4, 0, 0]"] ;
212 -> 213 ;
214 [label="X[8] <= 3.23\ngini = 0.5\nsamples = 2\nvalue = [0, 1, 1, 0, 0, 0]"] ;
212 -> 214 ;
215 [label="gini = 0.0\nsamples = 1\nvalue = [0, 1, 0, 0, 0, 0]"] ;
214 -> 215 ;
216 [label="gini = 0.0\nsamples = 1\nvalue = [0, 0, 1, 0, 0, 0]"] ;
214 -> 216 ;
217 [label="gini = 0.0\nsamples = 2\nvalue = [0, 0, 4, 0, 0, 0]"] ;
211 -> 217 ;
218 [label="gini = 0.0\nsamples = 7\nvalue = [0, 0, 12, 0, 0, 0]"] ;
198 -> 218 ;
219 [label="X[6] <= 29.5\ngini = 0.496\nsamples = 7\nvalue = [0, 0, 5, 6, 0, 0]"] ;
197 -> 219 ;
220 [label="gini = 0.0\nsamples = 2\nvalue = [0, 0, 3, 0, 0, 0]"] ;
219 -> 220 ;
221 [label="X[7] <= 0.999\ngini = 0.375\nsamples = 5\nvalue = [0, 0, 2, 6, 0, 0]"] ;
219 -> 221 ;
222 [label="gini = 0.0\nsamples = 3\nvalue = [0, 0, 0, 6, 0, 0]"] ;
221 -> 222 ;
223 [label="gini = 0.0\nsamples = 2\nvalue = [0, 0, 2, 0, 0, 0]"] ;
221 -> 223 ;
224 [label="gini = 0.0\nsamples = 4\nvalue = [0, 0, 0, 5, 0, 0]"] ;
138 -> 224 ;
225 [label="gini = 0.0\nsamples = 9\nvalue = [0, 0, 12, 0, 0, 0]"] ;
137 -> 225 ;
226 [label="gini = 0.0\nsamples = 20\nvalue = [0, 0, 27, 0, 0, 0]"] ;
136 -> 226 ;
227 [label="X[6] <= 17.5\ngini = 0.394\nsamples = 11\nvalue = [0, 1, 1, 13, 2, 0]"] ;
125 -> 227 ;
228 [label="gini = 0.0\nsamples = 1\nvalue = [0, 0, 0, 0, 2, 0]"] ;
227 -> 228 ;
229 [label="X[3] <= 1.35\ngini = 0.24\nsamples = 10\nvalue = [0, 1, 1, 13, 0, 0]"] ;
227 -> 229 ;
230 [label="gini = 0.0\nsamples = 1\nvalue = [0, 1, 0, 0, 0, 0]"] ;
229 -> 230 ;
231 [label="X[9] <= 1.08\ngini = 0.133\nsamples = 9\nvalue = [0, 0, 1, 13, 0, 0]"] ;
229 -> 231 ;
232 [label="gini = 0.0\nsamples = 8\nvalue = [0, 0, 0, 13, 0, 0]"] ;
231 -> 232 ;
233 [label="gini = 0.0\nsamples = 1\nvalue = [0, 0, 1, 0, 0, 0]"] ;
231 -> 233 ;
234 [label="X[8] <= 2.915\ngini = 0.35\nsamples = 43\nvalue = [0, 1, 53, 14, 0, 0]"] ;
124 -> 234 ;
235 [label="X[3] <= 2.8\ngini = 0.375\nsamples = 3\nvalue = [0, 1, 0, 3, 0, 0]"] ;
234 -> 235 ;
236 [label="gini = 0.0\nsamples = 2\nvalue = [0, 0, 0, 3, 0, 0]"] ;
235 -> 236 ;
237 [label="gini = 0.0\nsamples = 1\nvalue = [0, 1, 0, 0, 0, 0]"] ;
235 -> 237 ;
238 [label="X[3] <= 2.35\ngini = 0.285\nsamples = 40\nvalue = [0, 0, 53, 11, 0, 0]"] ;
234 -> 238 ;
239 [label="X[7] <= 0.998\ngini = 0.18\nsamples = 26\nvalue = [0, 0, 36, 4, 0, 0]"] ;
238 -> 239 ;
240 [label="X[6] <= 34.5\ngini = 0.1\nsamples = 25\nvalue = [0, 0, 36, 2, 0, 0]"] ;
239 -> 240 ;
241 [label="X[2] <= 0.485\ngini = 0.298\nsamples = 8\nvalue = [0, 0, 9, 2, 0, 0]"] ;
240 -> 241 ;
242 [label="gini = 0.0\nsamples = 6\nvalue = [0, 0, 9, 0, 0, 0]"] ;
241 -> 242 ;
243 [label="gini = 0.0\nsamples = 2\nvalue = [0, 0, 0, 2, 0, 0]"] ;
241 -> 243 ;
244 [label="gini = 0.0\nsamples = 17\nvalue = [0, 0, 27, 0, 0, 0]"] ;
240 -> 244 ;
245 [label="gini = 0.0\nsamples = 1\nvalue = [0, 0, 0, 2, 0, 0]"] ;
239 -> 245 ;
246 [label="X[4] <= 0.174\ngini = 0.413\nsamples = 14\nvalue = [0, 0, 17, 7, 0, 0]"] ;
238 -> 246 ;
247 [label="X[3] <= 2.55\ngini = 0.255\nsamples = 12\nvalue = [0, 0, 17, 3, 0, 0]"] ;
246 -> 247 ;
248 [label="gini = 0.0\nsamples = 1\nvalue = [0, 0, 0, 2, 0, 0]"] ;
247 -> 248 ;
249 [label="X[10] <= 10.0\ngini = 0.105\nsamples = 11\nvalue = [0, 0, 17, 1, 0, 0]"] ;
247 -> 249 ;
250 [label="gini = 0.0\nsamples = 8\nvalue = [0, 0, 13, 0, 0, 0]"] ;
249 -> 250 ;
251 [label="X[2] <= 0.115\ngini = 0.32\nsamples = 3\nvalue = [0, 0, 4, 1, 0, 0]"] ;
249 -> 251 ;
252 [label="gini = 0.0\nsamples = 2\nvalue = [0, 0, 4, 0, 0, 0]"] ;
251 -> 252 ;
253 [label="gini = 0.0\nsamples = 1\nvalue = [0, 0, 0, 1, 0, 0]"] ;
251 -> 253 ;
254 [label="gini = 0.0\nsamples = 2\nvalue = [0, 0, 0, 4, 0, 0]"] ;
246 -> 254 ;
255 [label="X[5] <= 28.5\ngini = 0.63\nsamples = 61\nvalue = [2, 1, 23, 46, 12, 3]"] ;
109 -> 255 ;
256 [label="X[8] <= 3.075\ngini = 0.603\nsamples = 58\nvalue = [0, 1, 20, 46, 12, 3]"] ;
255 -> 256 ;
257 [label="X[1] <= 0.3\ngini = 0.722\nsamples = 23\nvalue = [0, 1, 10, 13, 9, 3]"] ;
256 -> 257 ;
258 [label="gini = 0.0\nsamples = 2\nvalue = [0, 0, 0, 0, 4, 0]"] ;
257 -> 258 ;
259 [label="X[1] <= 0.35\ngini = 0.703\nsamples = 21\nvalue = [0, 1, 10, 13, 5, 3]"] ;
257 -> 259 ;
260 [label="X[10] <= 9.65\ngini = 0.397\nsamples = 6\nvalue = [0, 0, 0, 8, 0, 3]"] ;
259 -> 260 ;
261 [label="gini = 0.0\nsamples = 5\nvalue = [0, 0, 0, 8, 0, 0]"] ;
260 -> 261 ;
262 [label="gini = 0.0\nsamples = 1\nvalue = [0, 0, 0, 0, 0, 3]"] ;
260 -> 262 ;
263 [label="X[5] <= 21.5\ngini = 0.658\nsamples = 15\nvalue = [0, 1, 10, 5, 5, 0]"] ;
259 -> 263 ;
264 [label="X[7] <= 1.001\ngini = 0.599\nsamples = 13\nvalue = [0, 1, 10, 5, 2, 0]"] ;
263 -> 264 ;
265 [label="X[7] <= 0.997\ngini = 0.508\nsamples = 12\nvalue = [0, 1, 10, 5, 0, 0]"] ;
264 -> 265 ;
266 [label="gini = 0.0\nsamples = 1\nvalue = [0, 0, 0, 2, 0, 0]"] ;
265 -> 266 ;
267 [label="X[10] <= 10.25\ngini = 0.439\nsamples = 11\nvalue = [0, 1, 10, 3, 0, 0]"] ;
265 -> 267 ;
268 [label="X[1] <= 0.41\ngini = 0.278\nsamples = 9\nvalue = [0, 0, 10, 2, 0, 0]"] ;
267 -> 268 ;
269 [label="X[7] <= 0.998\ngini = 0.444\nsamples = 4\nvalue = [0, 0, 4, 2, 0, 0]"] ;
268 -> 269 ;
270 [label="gini = 0.0\nsamples = 1\nvalue = [0, 0, 0, 2, 0, 0]"] ;
269 -> 270 ;
271 [label="gini = 0.0\nsamples = 3\nvalue = [0, 0, 4, 0, 0, 0]"] ;
269 -> 271 ;
272 [label="gini = 0.0\nsamples = 5\nvalue = [0, 0, 6, 0, 0, 0]"] ;
268 -> 272 ;
273 [label="X[1] <= 0.51\ngini = 0.5\nsamples = 2\nvalue = [0, 1, 0, 1, 0, 0]"] ;
267 -> 273 ;
274 [label="gini = 0.0\nsamples = 1\nvalue = [0, 0, 0, 1, 0, 0]"] ;
273 -> 274 ;
275 [label="gini = 0.0\nsamples = 1\nvalue = [0, 1, 0, 0, 0, 0]"] ;
273 -> 275 ;
276 [label="gini = 0.0\nsamples = 1\nvalue = [0, 0, 0, 0, 2, 0]"] ;
264 -> 276 ;
277 [label="gini = 0.0\nsamples = 2\nvalue = [0, 0, 0, 0, 3, 0]"] ;
263 -> 277 ;
278 [label="X[7] <= 0.997\ngini = 0.434\nsamples = 35\nvalue = [0, 0, 10, 33, 3, 0]"] ;
256 -> 278 ;
279 [label="gini = 0.0\nsamples = 1\nvalue = [0, 0, 0, 0, 1, 0]"] ;
278 -> 279 ;
280 [label="X[4] <= 0.14\ngini = 0.411\nsamples = 34\nvalue = [0, 0, 10, 33, 2, 0]"] ;
278 -> 280 ;
281 [label="X[1] <= 0.385\ngini = 0.335\nsamples = 31\nvalue = [0, 0, 6, 32, 2, 0]"] ;
280 -> 281 ;
282 [label="X[10] <= 10.45\ngini = 0.499\nsamples = 16\nvalue = [0, 0, 6, 15, 2, 0]"] ;
281 -> 282 ;
283 [label="X[9] <= 0.615\ngini = 0.408\nsamples = 15\nvalue = [0, 0, 6, 15, 0, 0]"] ;
282 -> 283 ;
284 [label="X[6] <= 51.0\ngini = 0.32\nsamples = 4\nvalue = [0, 0, 4, 1, 0, 0]"] ;
283 -> 284 ;
285 [label="gini = 0.0\nsamples = 3\nvalue = [0, 0, 4, 0, 0, 0]"] ;
284 -> 285 ;
286 [label="gini = 0.0\nsamples = 1\nvalue = [0, 0, 0, 1, 0, 0]"] ;
284 -> 286 ;
287 [label="X[2] <= 0.42\ngini = 0.219\nsamples = 11\nvalue = [0, 0, 2, 14, 0, 0]"] ;
283 -> 287 ;
288 [label="gini = 0.0\nsamples = 1\nvalue = [0, 0, 1, 0, 0, 0]"] ;
287 -> 288 ;
289 [label="X[2] <= 0.565\ngini = 0.124\nsamples = 10\nvalue = [0, 0, 1, 14, 0, 0]"] ;
287 -> 289 ;
290 [label="gini = 0.0\nsamples = 8\nvalue = [0, 0, 0, 12, 0, 0]"] ;
289 -> 290 ;
291 [label="X[10] <= 9.65\ngini = 0.444\nsamples = 2\nvalue = [0, 0, 1, 2, 0, 0]"] ;
289 -> 291 ;
292 [label="gini = 0.0\nsamples = 1\nvalue = [0, 0, 0, 2, 0, 0]"] ;
291 -> 292 ;
293 [label="gini = 0.0\nsamples = 1\nvalue = [0, 0, 1, 0, 0, 0]"] ;
291 -> 293 ;
294 [label="gini = 0.0\nsamples = 1\nvalue = [0, 0, 0, 0, 2, 0]"] ;
282 -> 294 ;
295 [label="gini = 0.0\nsamples = 15\nvalue = [0, 0, 0, 17, 0, 0]"] ;
281 -> 295 ;
296 [label="X[6] <= 16.0\ngini = 0.32\nsamples = 3\nvalue = [0, 0, 4, 1, 0, 0]"] ;
280 -> 296 ;
297 [label="gini = 0.0\nsamples = 1\nvalue = [0, 0, 0, 1, 0, 0]"] ;
296 -> 297 ;
298 [label="gini = 0.0\nsamples = 2\nvalue = [0, 0, 4, 0, 0, 0]"] ;
296 -> 298 ;
299 [label="X[7] <= 0.999\ngini = 0.48\nsamples = 3\nvalue = [2, 0, 3, 0, 0, 0]"] ;
255 -> 299 ;
300 [label="gini = 0.0\nsamples = 1\nvalue = [2, 0, 0, 0, 0, 0]"] ;
299 -> 300 ;
301 [label="gini = 0.0\nsamples = 2\nvalue = [0, 0, 3, 0, 0, 0]"] ;
299 -> 301 ;
302 [label="X[9] <= 0.625\ngini = 0.634\nsamples = 248\nvalue = [0, 17, 64, 208, 80, 16]"] ;
108 -> 302 ;
303 [label="X[2] <= 0.61\ngini = 0.592\nsamples = 83\nvalue = [0, 15, 32, 80, 11, 0]"] ;
302 -> 303 ;
304 [label="X[6] <= 10.5\ngini = 0.577\nsamples = 78\nvalue = [0, 15, 26, 79, 11, 0]"] ;
303 -> 304 ;
305 [label="X[1] <= 0.375\ngini = 0.64\nsamples = 8\nvalue = [0, 4, 0, 4, 7, 0]"] ;
304 -> 305 ;
306 [label="gini = 0.0\nsamples = 3\nvalue = [0, 0, 0, 0, 4, 0]"] ;
305 -> 306 ;
307 [label="X[8] <= 3.245\ngini = 0.661\nsamples = 5\nvalue = [0, 4, 0, 4, 3, 0]"] ;
305 -> 307 ;
308 [label="gini = 0.0\nsamples = 1\nvalue = [0, 0, 0, 0, 3, 0]"] ;
307 -> 308 ;
309 [label="X[2] <= 0.165\ngini = 0.5\nsamples = 4\nvalue = [0, 4, 0, 4, 0, 0]"] ;
307 -> 309 ;
310 [label="gini = 0.0\nsamples = 1\nvalue = [0, 0, 0, 2, 0, 0]"] ;
309 -> 310 ;
311 [label="X[7] <= 0.996\ngini = 0.444\nsamples = 3\nvalue = [0, 4, 0, 2, 0, 0]"] ;
309 -> 311 ;
312 [label="gini = 0.0\nsamples = 2\nvalue = [0, 4, 0, 0, 0, 0]"] ;
311 -> 312 ;
313 [label="gini = 0.0\nsamples = 1\nvalue = [0, 0, 0, 2, 0, 0]"] ;
311 -> 313 ;
314 [label="X[5] <= 6.5\ngini = 0.522\nsamples = 70\nvalue = [0, 11, 26, 75, 4, 0]"] ;
304 -> 314 ;
315 [label="X[4] <= 0.103\ngini = 0.668\nsamples = 20\nvalue = [0, 7, 13, 10, 1, 0]"] ;
314 -> 315 ;
316 [label="X[1] <= 0.52\ngini = 0.65\nsamples = 18\nvalue = [0, 7, 13, 6, 1, 0]"] ;
315 -> 316 ;
317 [label="X[1] <= 0.355\ngini = 0.594\nsamples = 5\nvalue = [0, 3, 0, 4, 1, 0]"] ;
316 -> 317 ;
318 [label="X[0] <= 7.15\ngini = 0.375\nsamples = 2\nvalue = [0, 3, 0, 0, 1, 0]"] ;
317 -> 318 ;
319 [label="gini = 0.0\nsamples = 1\nvalue = [0, 3, 0, 0, 0, 0]"] ;
318 -> 319 ;
320 [label="gini = 0.0\nsamples = 1\nvalue = [0, 0, 0, 0, 1, 0]"] ;
318 -> 320 ;
321 [label="gini = 0.0\nsamples = 3\nvalue = [0, 0, 0, 4, 0, 0]"] ;
317 -> 321 ;
322 [label="X[9] <= 0.595\ngini = 0.476\nsamples = 13\nvalue = [0, 4, 13, 2, 0, 0]"] ;
316 -> 322 ;
323 [label="X[10] <= 10.65\ngini = 0.24\nsamples = 10\nvalue = [0, 1, 13, 1, 0, 0]"] ;
322 -> 323 ;
324 [label="gini = 0.0\nsamples = 1\nvalue = [0, 0, 0, 1, 0, 0]"] ;
323 -> 324 ;
325 [label="X[3] <= 3.6\ngini = 0.133\nsamples = 9\nvalue = [0, 1, 13, 0, 0, 0]"] ;
323 -> 325 ;
326 [label="gini = 0.0\nsamples = 8\nvalue = [0, 0, 13, 0, 0, 0]"] ;
325 -> 326 ;
327 [label="gini = 0.0\nsamples = 1\nvalue = [0, 1, 0, 0, 0, 0]"] ;
325 -> 327 ;
328 [label="X[0] <= 7.65\ngini = 0.375\nsamples = 3\nvalue = [0, 3, 0, 1, 0, 0]"] ;
322 -> 328 ;
329 [label="gini = 0.0\nsamples = 2\nvalue = [0, 3, 0, 0, 0, 0]"] ;
328 -> 329 ;
330 [label="gini = 0.0\nsamples = 1\nvalue = [0, 0, 0, 1, 0, 0]"] ;
328 -> 330 ;
331 [label="gini = 0.0\nsamples = 2\nvalue = [0, 0, 0, 4, 0, 0]"] ;
315 -> 331 ;
332 [label="X[1] <= 0.535\ngini = 0.388\nsamples = 50\nvalue = [0, 4, 13, 65, 3, 0]"] ;
314 -> 332 ;
333 [label="X[10] <= 11.0\ngini = 0.104\nsamples = 24\nvalue = [0, 1, 1, 35, 0, 0]"] ;
332 -> 333 ;
334 [label="X[9] <= 0.585\ngini = 0.37\nsamples = 6\nvalue = [0, 1, 1, 7, 0, 0]"] ;
333 -> 334 ;
335 [label="X[4] <= 0.069\ngini = 0.5\nsamples = 2\nvalue = [0, 1, 1, 0, 0, 0]"] ;
334 -> 335 ;
336 [label="gini = 0.0\nsamples = 1\nvalue = [0, 1, 0, 0, 0, 0]"] ;
335 -> 336 ;
337 [label="gini = 0.0\nsamples = 1\nvalue = [0, 0, 1, 0, 0, 0]"] ;
335 -> 337 ;
338 [label="gini = 0.0\nsamples = 4\nvalue = [0, 0, 0, 7, 0, 0]"] ;
334 -> 338 ;
339 [label="gini = 0.0\nsamples = 18\nvalue = [0, 0, 0, 28, 0, 0]"] ;
333 -> 339 ;
340 [label="X[6] <= 44.5\ngini = 0.539\nsamples = 26\nvalue = [0, 3, 12, 30, 3, 0]"] ;
332 -> 340 ;
341 [label="X[2] <= 0.13\ngini = 0.398\nsamples = 21\nvalue = [0, 3, 4, 29, 2, 0]"] ;
340 -> 341 ;
342 [label="X[3] <= 3.4\ngini = 0.17\nsamples = 18\nvalue = [0, 3, 0, 29, 0, 0]"] ;
341 -> 342 ;
343 [label="X[8] <= 3.57\ngini = 0.064\nsamples = 17\nvalue = [0, 1, 0, 29, 0, 0]"] ;
342 -> 343 ;
344 [label="gini = 0.0\nsamples = 16\nvalue = [0, 0, 0, 29, 0, 0]"] ;
343 -> 344 ;
345 [label="gini = 0.0\nsamples = 1\nvalue = [0, 1, 0, 0, 0, 0]"] ;
343 -> 345 ;
346 [label="gini = 0.0\nsamples = 1\nvalue = [0, 2, 0, 0, 0, 0]"] ;
342 -> 346 ;
347 [label="X[10] <= 11.35\ngini = 0.444\nsamples = 3\nvalue = [0, 0, 4, 0, 2, 0]"] ;
341 -> 347 ;
348 [label="gini = 0.0\nsamples = 2\nvalue = [0, 0, 4, 0, 0, 0]"] ;
347 -> 348 ;
349 [label="gini = 0.0\nsamples = 1\nvalue = [0, 0, 0, 0, 2, 0]"] ;
347 -> 349 ;
350 [label="X[9] <= 0.565\ngini = 0.34\nsamples = 5\nvalue = [0, 0, 8, 1, 1, 0]"] ;
340 -> 350 ;
351 [label="gini = 0.0\nsamples = 1\nvalue = [0, 0, 0, 0, 1, 0]"] ;
350 -> 351 ;
352 [label="X[5] <= 24.0\ngini = 0.198\nsamples = 4\nvalue = [0, 0, 8, 1, 0, 0]"] ;
350 -> 352 ;
353 [label="gini = 0.0\nsamples = 1\nvalue = [0, 0, 0, 1, 0, 0]"] ;
352 -> 353 ;
354 [label="gini = 0.0\nsamples = 3\nvalue = [0, 0, 8, 0, 0, 0]"] ;
352 -> 354 ;
355 [label="X[5] <= 16.0\ngini = 0.245\nsamples = 5\nvalue = [0, 0, 6, 1, 0, 0]"] ;
303 -> 355 ;
356 [label="gini = 0.0\nsamples = 4\nvalue = [0, 0, 6, 0, 0, 0]"] ;
355 -> 356 ;
357 [label="gini = 0.0\nsamples = 1\nvalue = [0, 0, 0, 1, 0, 0]"] ;
355 -> 357 ;
358 [label="X[2] <= 0.505\ngini = 0.632\nsamples = 165\nvalue = [0, 2, 32, 128, 69, 16]"] ;
302 -> 358 ;
359 [label="X[7] <= 0.994\ngini = 0.599\nsamples = 138\nvalue = [0, 2, 27, 118, 49, 11]"] ;
358 -> 359 ;
360 [label="X[7] <= 0.992\ngini = 0.669\nsamples = 16\nvalue = [0, 0, 3, 3, 11, 6]"] ;
359 -> 360 ;
361 [label="X[6] <= 55.0\ngini = 0.49\nsamples = 5\nvalue = [0, 0, 0, 3, 0, 4]"] ;
360 -> 361 ;
362 [label="gini = 0.0\nsamples = 1\nvalue = [0, 0, 0, 0, 0, 2]"] ;
361 -> 362 ;
363 [label="X[7] <= 0.991\ngini = 0.48\nsamples = 4\nvalue = [0, 0, 0, 3, 0, 2]"] ;
361 -> 363 ;
364 [label="X[6] <= 83.5\ngini = 0.444\nsamples = 2\nvalue = [0, 0, 0, 1, 0, 2]"] ;
363 -> 364 ;
365 [label="gini = 0.0\nsamples = 1\nvalue = [0, 0, 0, 1, 0, 0]"] ;
364 -> 365 ;
366 [label="gini = 0.0\nsamples = 1\nvalue = [0, 0, 0, 0, 0, 2]"] ;
364 -> 366 ;
367 [label="gini = 0.0\nsamples = 2\nvalue = [0, 0, 0, 2, 0, 0]"] ;
363 -> 367 ;
368 [label="X[2] <= 0.005\ngini = 0.477\nsamples = 11\nvalue = [0, 0, 3, 0, 11, 2]"] ;
360 -> 368 ;
369 [label="gini = 0.0\nsamples = 1\nvalue = [0, 0, 2, 0, 0, 0]"] ;
368 -> 369 ;
370 [label="X[3] <= 1.55\ngini = 0.357\nsamples = 10\nvalue = [0, 0, 1, 0, 11, 2]"] ;
368 -> 370 ;
371 [label="X[10] <= 12.95\ngini = 0.444\nsamples = 2\nvalue = [0, 0, 0, 0, 1, 2]"] ;
370 -> 371 ;
372 [label="gini = 0.0\nsamples = 1\nvalue = [0, 0, 0, 0, 0, 2]"] ;
371 -> 372 ;
373 [label="gini = 0.0\nsamples = 1\nvalue = [0, 0, 0, 0, 1, 0]"] ;
371 -> 373 ;
374 [label="X[8] <= 3.6\ngini = 0.165\nsamples = 8\nvalue = [0, 0, 1, 0, 10, 0]"] ;
370 -> 374 ;
375 [label="gini = 0.0\nsamples = 7\nvalue = [0, 0, 0, 0, 10, 0]"] ;
374 -> 375 ;
376 [label="gini = 0.0\nsamples = 1\nvalue = [0, 0, 1, 0, 0, 0]"] ;
374 -> 376 ;
377 [label="X[10] <= 11.55\ngini = 0.549\nsamples = 122\nvalue = [0, 2, 24, 115, 38, 5]"] ;
359 -> 377 ;
378 [label="X[7] <= 0.996\ngini = 0.486\nsamples = 88\nvalue = [0, 2, 23, 92, 15, 2]"] ;
377 -> 378 ;
379 [label="X[8] <= 3.285\ngini = 0.244\nsamples = 38\nvalue = [0, 0, 5, 51, 1, 2]"] ;
378 -> 379 ;
380 [label="X[5] <= 17.5\ngini = 0.7\nsamples = 8\nvalue = [0, 0, 3, 4, 1, 2]"] ;
379 -> 380 ;
381 [label="X[9] <= 0.78\ngini = 0.48\nsamples = 4\nvalue = [0, 0, 3, 0, 0, 2]"] ;
380 -> 381 ;
382 [label="gini = 0.0\nsamples = 2\nvalue = [0, 0, 0, 0, 0, 2]"] ;
381 -> 382 ;
383 [label="gini = 0.0\nsamples = 2\nvalue = [0, 0, 3, 0, 0, 0]"] ;
381 -> 383 ;
384 [label="X[10] <= 11.2\ngini = 0.32\nsamples = 4\nvalue = [0, 0, 0, 4, 1, 0]"] ;
380 -> 384 ;
385 [label="gini = 0.0\nsamples = 3\nvalue = [0, 0, 0, 4, 0, 0]"] ;
384 -> 385 ;
386 [label="gini = 0.0\nsamples = 1\nvalue = [0, 0, 0, 0, 1, 0]"] ;
384 -> 386 ;
387 [label="X[4] <= 0.079\ngini = 0.078\nsamples = 30\nvalue = [0, 0, 2, 47, 0, 0]"] ;
379 -> 387 ;
388 [label="gini = 0.0\nsamples = 20\nvalue = [0, 0, 0, 34, 0, 0]"] ;
387 -> 388 ;
389 [label="X[1] <= 0.33\ngini = 0.231\nsamples = 10\nvalue = [0, 0, 2, 13, 0, 0]"] ;
387 -> 389 ;
390 [label="gini = 0.0\nsamples = 1\nvalue = [0, 0, 1, 0, 0, 0]"] ;
389 -> 390 ;
391 [label="X[10] <= 11.0\ngini = 0.133\nsamples = 9\nvalue = [0, 0, 1, 13, 0, 0]"] ;
389 -> 391 ;
392 [label="X[1] <= 0.535\ngini = 0.444\nsamples = 2\nvalue = [0, 0, 1, 2, 0, 0]"] ;
391 -> 392 ;
393 [label="gini = 0.0\nsamples = 1\nvalue = [0, 0, 0, 2, 0, 0]"] ;
392 -> 393 ;
394 [label="gini = 0.0\nsamples = 1\nvalue = [0, 0, 1, 0, 0, 0]"] ;
392 -> 394 ;
395 [label="gini = 0.0\nsamples = 7\nvalue = [0, 0, 0, 11, 0, 0]"] ;
391 -> 395 ;
396 [label="X[0] <= 7.85\ngini = 0.608\nsamples = 50\nvalue = [0, 2, 18, 41, 14, 0]"] ;
378 -> 396 ;
397 [label="X[7] <= 0.997\ngini = 0.663\nsamples = 12\nvalue = [0, 2, 5, 1, 6, 0]"] ;
396 -> 397 ;
398 [label="X[6] <= 33.0\ngini = 0.449\nsamples = 7\nvalue = [0, 1, 5, 1, 0, 0]"] ;
397 -> 398 ;
399 [label="gini = 0.0\nsamples = 1\nvalue = [0, 1, 0, 0, 0, 0]"] ;
398 -> 399 ;
400 [label="X[2] <= 0.405\ngini = 0.278\nsamples = 6\nvalue = [0, 0, 5, 1, 0, 0]"] ;
398 -> 400 ;
401 [label="gini = 0.0\nsamples = 4\nvalue = [0, 0, 4, 0, 0, 0]"] ;
400 -> 401 ;
402 [label="X[0] <= 7.15\ngini = 0.5\nsamples = 2\nvalue = [0, 0, 1, 1, 0, 0]"] ;
400 -> 402 ;
403 [label="gini = 0.0\nsamples = 1\nvalue = [0, 0, 0, 1, 0, 0]"] ;
402 -> 403 ;
404 [label="gini = 0.0\nsamples = 1\nvalue = [0, 0, 1, 0, 0, 0]"] ;
402 -> 404 ;
405 [label="X[2] <= 0.095\ngini = 0.245\nsamples = 5\nvalue = [0, 1, 0, 0, 6, 0]"] ;
397 -> 405 ;
406 [label="gini = 0.0\nsamples = 1\nvalue = [0, 1, 0, 0, 0, 0]"] ;
405 -> 406 ;
407 [label="gini = 0.0\nsamples = 4\nvalue = [0, 0, 0, 0, 6, 0]"] ;
405 -> 407 ;
408 [label="X[4] <= 0.094\ngini = 0.507\nsamples = 38\nvalue = [0, 0, 13, 40, 8, 0]"] ;
396 -> 408 ;
409 [label="X[8] <= 3.09\ngini = 0.4\nsamples = 28\nvalue = [0, 0, 3, 33, 8, 0]"] ;
408 -> 409 ;
410 [label="X[2] <= 0.365\ngini = 0.444\nsamples = 2\nvalue = [0, 0, 2, 1, 0, 0]"] ;
409 -> 410 ;
411 [label="gini = 0.0\nsamples = 1\nvalue = [0, 0, 0, 1, 0, 0]"] ;
410 -> 411 ;
412 [label="gini = 0.0\nsamples = 1\nvalue = [0, 0, 2, 0, 0, 0]"] ;
410 -> 412 ;
413 [label="X[4] <= 0.058\ngini = 0.352\nsamples = 26\nvalue = [0, 0, 1, 32, 8, 0]"] ;
409 -> 413 ;
414 [label="X[8] <= 3.24\ngini = 0.5\nsamples = 2\nvalue = [0, 0, 1, 0, 1, 0]"] ;
413 -> 414 ;
415 [label="gini = 0.0\nsamples = 1\nvalue = [0, 0, 0, 0, 1, 0]"] ;
414 -> 415 ;
416 [label="gini = 0.0\nsamples = 1\nvalue = [0, 0, 1, 0, 0, 0]"] ;
414 -> 416 ;
417 [label="X[9] <= 0.715\ngini = 0.295\nsamples = 24\nvalue = [0, 0, 0, 32, 7, 0]"] ;
413 -> 417 ;
418 [label="X[5] <= 22.5\ngini = 0.5\nsamples = 4\nvalue = [0, 0, 0, 3, 3, 0]"] ;
417 -> 418 ;
419 [label="gini = 0.0\nsamples = 2\nvalue = [0, 0, 0, 0, 3, 0]"] ;
418 -> 419 ;
420 [label="gini = 0.0\nsamples = 2\nvalue = [0, 0, 0, 3, 0, 0]"] ;
418 -> 420 ;
421 [label="X[7] <= 0.996\ngini = 0.213\nsamples = 20\nvalue = [0, 0, 0, 29, 4, 0]"] ;
417 -> 421 ;
422 [label="gini = 0.0\nsamples = 1\nvalue = [0, 0, 0, 0, 1, 0]"] ;
421 -> 422 ;
423 [label="X[4] <= 0.091\ngini = 0.17\nsamples = 19\nvalue = [0, 0, 0, 29, 3, 0]"] ;
421 -> 423 ;
424 [label="X[7] <= 0.996\ngini = 0.121\nsamples = 18\nvalue = [0, 0, 0, 29, 2, 0]"] ;
423 -> 424 ;
425 [label="X[8] <= 3.37\ngini = 0.444\nsamples = 3\nvalue = [0, 0, 0, 2, 1, 0]"] ;
424 -> 425 ;
426 [label="gini = 0.0\nsamples = 2\nvalue = [0, 0, 0, 2, 0, 0]"] ;
425 -> 426 ;
427 [label="gini = 0.0\nsamples = 1\nvalue = [0, 0, 0, 0, 1, 0]"] ;
425 -> 427 ;
428 [label="X[9] <= 0.98\ngini = 0.069\nsamples = 15\nvalue = [0, 0, 0, 27, 1, 0]"] ;
424 -> 428 ;
429 [label="gini = 0.0\nsamples = 13\nvalue = [0, 0, 0, 25, 0, 0]"] ;
428 -> 429 ;
430 [label="X[9] <= 1.03\ngini = 0.444\nsamples = 2\nvalue = [0, 0, 0, 2, 1, 0]"] ;
428 -> 430 ;
431 [label="gini = 0.0\nsamples = 1\nvalue = [0, 0, 0, 0, 1, 0]"] ;
430 -> 431 ;
432 [label="gini = 0.0\nsamples = 1\nvalue = [0, 0, 0, 2, 0, 0]"] ;
430 -> 432 ;
433 [label="gini = 0.0\nsamples = 1\nvalue = [0, 0, 0, 0, 1, 0]"] ;
423 -> 433 ;
434 [label="X[9] <= 0.75\ngini = 0.484\nsamples = 10\nvalue = [0, 0, 10, 7, 0, 0]"] ;
408 -> 434 ;
435 [label="X[2] <= 0.405\ngini = 0.18\nsamples = 7\nvalue = [0, 0, 9, 1, 0, 0]"] ;
434 -> 435 ;
436 [label="gini = 0.0\nsamples = 5\nvalue = [0, 0, 8, 0, 0, 0]"] ;
435 -> 436 ;
437 [label="X[10] <= 11.0\ngini = 0.5\nsamples = 2\nvalue = [0, 0, 1, 1, 0, 0]"] ;
435 -> 437 ;
438 [label="gini = 0.0\nsamples = 1\nvalue = [0, 0, 0, 1, 0, 0]"] ;
437 -> 438 ;
439 [label="gini = 0.0\nsamples = 1\nvalue = [0, 0, 1, 0, 0, 0]"] ;
437 -> 439 ;
440 [label="X[7] <= 0.998\ngini = 0.245\nsamples = 3\nvalue = [0, 0, 1, 6, 0, 0]"] ;
434 -> 440 ;
441 [label="gini = 0.0\nsamples = 1\nvalue = [0, 0, 1, 0, 0, 0]"] ;
440 -> 441 ;
442 [label="gini = 0.0\nsamples = 2\nvalue = [0, 0, 0, 6, 0, 0]"] ;
440 -> 442 ;
443 [label="X[3] <= 2.15\ngini = 0.573\nsamples = 34\nvalue = [0, 0, 1, 23, 23, 3]"] ;
377 -> 443 ;
444 [label="X[4] <= 0.07\ngini = 0.406\nsamples = 9\nvalue = [0, 0, 0, 12, 2, 2]"] ;
443 -> 444 ;
445 [label="X[3] <= 1.85\ngini = 0.667\nsamples = 5\nvalue = [0, 0, 0, 2, 2, 2]"] ;
444 -> 445 ;
446 [label="gini = 0.0\nsamples = 1\nvalue = [0, 0, 0, 0, 0, 2]"] ;
445 -> 446 ;
447 [label="X[2] <= 0.405\ngini = 0.5\nsamples = 4\nvalue = [0, 0, 0, 2, 2, 0]"] ;
445 -> 447 ;
448 [label="gini = 0.0\nsamples = 2\nvalue = [0, 0, 0, 0, 2, 0]"] ;
447 -> 448 ;
449 [label="gini = 0.0\nsamples = 2\nvalue = [0, 0, 0, 2, 0, 0]"] ;
447 -> 449 ;
450 [label="gini = 0.0\nsamples = 4\nvalue = [0, 0, 0, 10, 0, 0]"] ;
444 -> 450 ;
451 [label="X[10] <= 13.4\ngini = 0.512\nsamples = 25\nvalue = [0, 0, 1, 11, 21, 1]"] ;
443 -> 451 ;
452 [label="X[1] <= 0.235\ngini = 0.472\nsamples = 24\nvalue = [0, 0, 1, 8, 21, 1]"] ;
451 -> 452 ;
453 [label="gini = 0.0\nsamples = 1\nvalue = [0, 0, 0, 2, 0, 0]"] ;
452 -> 453 ;
454 [label="X[8] <= 3.39\ngini = 0.43\nsamples = 23\nvalue = [0, 0, 1, 6, 21, 1]"] ;
452 -> 454 ;
455 [label="X[8] <= 3.225\ngini = 0.236\nsamples = 16\nvalue = [0, 0, 0, 3, 19, 0]"] ;
454 -> 455 ;
456 [label="X[7] <= 0.999\ngini = 0.444\nsamples = 3\nvalue = [0, 0, 0, 2, 1, 0]"] ;
455 -> 456 ;
457 [label="gini = 0.0\nsamples = 2\nvalue = [0, 0, 0, 2, 0, 0]"] ;
456 -> 457 ;
458 [label="gini = 0.0\nsamples = 1\nvalue = [0, 0, 0, 0, 1, 0]"] ;
456 -> 458 ;
459 [label="X[9] <= 0.7\ngini = 0.1\nsamples = 13\nvalue = [0, 0, 0, 1, 18, 0]"] ;
455 -> 459 ;
460 [label="X[9] <= 0.665\ngini = 0.278\nsamples = 4\nvalue = [0, 0, 0, 1, 5, 0]"] ;
459 -> 460 ;
461 [label="gini = 0.0\nsamples = 3\nvalue = [0, 0, 0, 0, 5, 0]"] ;
460 -> 461 ;
462 [label="gini = 0.0\nsamples = 1\nvalue = [0, 0, 0, 1, 0, 0]"] ;
460 -> 462 ;
463 [label="gini = 0.0\nsamples = 9\nvalue = [0, 0, 0, 0, 13, 0]"] ;
459 -> 463 ;
464 [label="X[3] <= 2.75\ngini = 0.694\nsamples = 7\nvalue = [0, 0, 1, 3, 2, 1]"] ;
454 -> 464 ;
465 [label="X[6] <= 26.5\ngini = 0.72\nsamples = 5\nvalue = [0, 0, 1, 1, 2, 1]"] ;
464 -> 465 ;
466 [label="gini = 0.0\nsamples = 2\nvalue = [0, 0, 0, 0, 2, 0]"] ;
465 -> 466 ;
467 [label="X[9] <= 0.68\ngini = 0.667\nsamples = 3\nvalue = [0, 0, 1, 1, 0, 1]"] ;
465 -> 467 ;
468 [label="gini = 0.0\nsamples = 1\nvalue = [0, 0, 0, 1, 0, 0]"] ;
467 -> 468 ;
469 [label="X[0] <= 8.35\ngini = 0.5\nsamples = 2\nvalue = [0, 0, 1, 0, 0, 1]"] ;
467 -> 469 ;
470 [label="gini = 0.0\nsamples = 1\nvalue = [0, 0, 0, 0, 0, 1]"] ;
469 -> 470 ;
471 [label="gini = 0.0\nsamples = 1\nvalue = [0, 0, 1, 0, 0, 0]"] ;
469 -> 471 ;
472 [label="gini = 0.0\nsamples = 2\nvalue = [0, 0, 0, 2, 0, 0]"] ;
464 -> 472 ;
473 [label="gini = 0.0\nsamples = 1\nvalue = [0, 0, 0, 3, 0, 0]"] ;
451 -> 473 ;
474 [label="X[7] <= 1.001\ngini = 0.656\nsamples = 27\nvalue = [0, 0, 5, 10, 20, 5]"] ;
358 -> 474 ;
475 [label="X[1] <= 0.605\ngini = 0.636\nsamples = 25\nvalue = [0, 0, 5, 7, 20, 5]"] ;
474 -> 475 ;
476 [label="X[8] <= 3.37\ngini = 0.606\nsamples = 24\nvalue = [0, 0, 5, 7, 20, 3]"] ;
475 -> 476 ;
477 [label="X[9] <= 0.64\ngini = 0.539\nsamples = 21\nvalue = [0, 0, 3, 5, 20, 3]"] ;
476 -> 477 ;
478 [label="gini = 0.0\nsamples = 1\nvalue = [0, 0, 0, 0, 0, 2]"] ;
477 -> 478 ;
479 [label="X[10] <= 11.55\ngini = 0.483\nsamples = 20\nvalue = [0, 0, 3, 5, 20, 1]"] ;
477 -> 479 ;
480 [label="X[10] <= 10.85\ngini = 0.628\nsamples = 10\nvalue = [0, 0, 2, 5, 4, 0]"] ;
479 -> 480 ;
481 [label="X[7] <= 0.998\ngini = 0.375\nsamples = 3\nvalue = [0, 0, 1, 0, 3, 0]"] ;
480 -> 481 ;
482 [label="gini = 0.0\nsamples = 1\nvalue = [0, 0, 1, 0, 0, 0]"] ;
481 -> 482 ;
483 [label="gini = 0.0\nsamples = 2\nvalue = [0, 0, 0, 0, 3, 0]"] ;
481 -> 483 ;
484 [label="X[3] <= 2.9\ngini = 0.449\nsamples = 7\nvalue = [0, 0, 1, 5, 1, 0]"] ;
480 -> 484 ;
485 [label="X[2] <= 0.7\ngini = 0.278\nsamples = 6\nvalue = [0, 0, 0, 5, 1, 0]"] ;
484 -> 485 ;
486 [label="gini = 0.0\nsamples = 5\nvalue = [0, 0, 0, 5, 0, 0]"] ;
485 -> 486 ;
487 [label="gini = 0.0\nsamples = 1\nvalue = [0, 0, 0, 0, 1, 0]"] ;
485 -> 487 ;
488 [label="gini = 0.0\nsamples = 1\nvalue = [0, 0, 1, 0, 0, 0]"] ;
484 -> 488 ;
489 [label="X[8] <= 2.995\ngini = 0.204\nsamples = 10\nvalue = [0, 0, 1, 0, 16, 1]"] ;
479 -> 489 ;
490 [label="gini = 0.0\nsamples = 1\nvalue = [0, 0, 1, 0, 0, 0]"] ;
489 -> 490 ;
491 [label="X[0] <= 9.5\ngini = 0.111\nsamples = 9\nvalue = [0, 0, 0, 0, 16, 1]"] ;
489 -> 491 ;
492 [label="X[10] <= 11.75\ngini = 0.5\nsamples = 2\nvalue = [0, 0, 0, 0, 1, 1]"] ;
491 -> 492 ;
493 [label="gini = 0.0\nsamples = 1\nvalue = [0, 0, 0, 0, 0, 1]"] ;
492 -> 493 ;
494 [label="gini = 0.0\nsamples = 1\nvalue = [0, 0, 0, 0, 1, 0]"] ;
492 -> 494 ;
495 [label="gini = 0.0\nsamples = 7\nvalue = [0, 0, 0, 0, 15, 0]"] ;
491 -> 495 ;
496 [label="X[0] <= 7.9\ngini = 0.5\nsamples = 3\nvalue = [0, 0, 2, 2, 0, 0]"] ;
476 -> 496 ;
497 [label="gini = 0.0\nsamples = 1\nvalue = [0, 0, 0, 2, 0, 0]"] ;
496 -> 497 ;
498 [label="gini = 0.0\nsamples = 2\nvalue = [0, 0, 2, 0, 0, 0]"] ;
496 -> 498 ;
499 [label="gini = 0.0\nsamples = 1\nvalue = [0, 0, 0, 0, 0, 2]"] ;
475 -> 499 ;
500 [label="gini = 0.0\nsamples = 2\nvalue = [0, 0, 0, 3, 0, 0]"] ;
474 -> 500 ;
}